{"learner":{"attributes":{"scikit_learn":"{\"_estimator_type\": \"classifier\"}"},"feature_names":["temperatura","amonia","idade","peso","sexo","fotoperiodo","ruido","luz","umidade","infeccoes","animais_por_gaiola","linhagem"],"feature_types":["int","int","int","int","int","int","int","int","int","int","int","int"],"gradient_booster":{"model":{"gbtree_model_param":{"num_parallel_tree":"1","num_trees":"600"},"iteration_indptr":[0,3,6,9,12,15,18,21,24,27,30,33,36,39,42,45,48,51,54,57,60,63,66,69,72,75,78,81,84,87,90,93,96,99,102,105,108,111,114,117,120,123,126,129,132,135,138,141,144,147,150,153,156,159,162,165,168,171,174,177,180,183,186,189,192,195,198,201,204,207,210,213,216,219,222,225,228,231,234,237,240,243,246,249,252,255,258,261,264,267,270,273,276,279,282,285,288,291,294,297,300,303,306,309,312,315,318,321,324,327,330,333,336,339,342,345,348,351,354,357,360,363,366,369,372,375,378,381,384,387,390,393,396,399,402,405,408,411,414,417,420,423,426,429,432,435,438,441,444,447,450,453,456,459,462,465,468,471,474,477,480,483,486,489,492,495,498,501,504,507,510,513,516,519,522,525,528,531,534,537,540,543,546,549,552,555,558,561,564,567,570,573,576,579,582,585,588,591,594,597,600],"tree_info":[0,1,2,0,1,2,0,1,2,0,1,2,0,1,2,0,1,2,0,1,2,0,1,2,0,1,2,0,1,2,0,1,2,0,1,2,0,1,2,0,1,2,0,1,2,0,1,2,0,1,2,0,1,2,0,1,2,0,1,2,0,1,2,0,1,2,0,1,2,0,1,2,0,1,2,0,1,2,0,1,2,0,1,2,0,1,2,0,1,2,0,1,2,0,1,2,0,1,2,0,1,2,0,1,2,0,1,2,0,1,2,0,1,2,0,1,2,0,1,2,0,1,2,0,1,2,0,1,2,0,1,2,0,1,2,0,1,2,0,1,2,0,1,2,0,1,2,0,1,2,0,1,2,0,1,2,0,1,2,0,1,2,0,1,2,0,1,2,0,1,2,0,1,2,0,1,2,0,1,2,0,1,2,0,1,2,0,1,2,0,1,2,0,1,2,0,1,2,0,1,2,0,1,2,0,1,2,0,1,2,0,1,2,0,1,2,0,1,2,0,1,2,0,1,2,0,1,2,0,1,2,0,1,2,0,1,2,0,1,2,0,1,2,0,1,2,0,1,2,0,1,2,0,1,2,0,1,2,0,1,2,0,1,2,0,1,2,0,1,2,0,1,2,0,1,2,0,1,2,0,1,2,0,1,2,0,1,2,0,1,2,0,1,2,0,1,2,0,1,2,0,1,2,0,1,2,0,1,2,0,1,2,0,1,2,0,1,2,0,1,2,0,1,2,0,1,2,0,1,2,0,1,2,0,1,2,0,1,2,0,1,2,0,1,2,0,1,2,0,1,2,0,1,2,0,1,2,0,1,2,0,1,2,0,1,2,0,1,2,0,1,2,0,1,2,0,1,2,0,1,2,0,1,2,0,1,2,0,1,2,0,1,2,0,1,2,0,1,2,0,1,2,0,1,2,0,1,2,0,1,2,0,1,2,0,1,2,0,1,2,0,1,2,0,1,2,0,1,2,0,1,2,0,1,2,0,1,2,0,1,2,0,1,2,0,1,2,0,1,2,0,1,2,0,1,2,0,1,2,0,1,2,0,1,2,0,1,2,0,1,2,0,1,2,0,1,2,0,1,2,0,1,2,0,1,2,0,1,2,0,1,2,0,1,2,0,1,2,0,1,2,0,1,2,0,1,2,0,1,2,0,1,2,0,1,2,0,1,2,0,1,2,0,1,2,0,1,2,0,1,2,0,1,2,0,1,2,0,1,2,0,1,2,0,1,2,0,1,2,0,1,2,0,1,2,0,1,2,0,1,2,0,1,2,0,1,2,0,1,2,0,1,2,0,1,2,0,1,2,0,1,2,0,1,2,0,1,2,0,1,2,0,1,2,0,1,2,0,1,2],"trees":[{"base_weights":[2.0927577E-1,1.7981975E-1,2.1522209E-1,1.4485458E-1,2.0371777E-1,2.8582418E-1,2.1265666E-1,1.1449042E-1,2.544521E-1,1.3934234E-1,2.1918261E-1,2.7489477E-1,1.0449438E0,2.713721E-1,2.099617E-1,2.6777607E-1,1.05471805E-1,2.9836062E-1,4.1594412E-2,1.717352E-1,-1.4831465E-1,2.340576E-1,1.2555328E-1,2.400772E-1,3.6543906E-1,5.9999996E-1,1.24528304E-1,2.5577402E-1,6.83274E-1,2.1180283E-1,1.5111616E-1,-3.7267122E-3,3.5952847E-2,8.107108E-3,1.6692568E-2,1.0645161E-1,2.7057493E-2,-2.8402373E-2,1.7266182E-2,1.2529467E-2,3.1479534E-2,-6.31579E-2,-7.55668E-3,2.9766118E-2,2.1001326E-2,6.382979E-2,9.43476E-3,4.3761995E-2,2.147505E-2,1.4754094E-2,4.6040814E-2,-2.5544848E-9,8.1818186E-2,2.2625824E-2,4.2975202E-2,9.272727E-2,3.1199997E-2,2.0823421E-2,2.485533E-2,1.8847806E-2,-4.6373415E-3],"categories":[],"categories_nodes":[],"categories_segments":[],"categories_sizes":[],"default_left":[0,0,0,0,0,0,0,0,0,0,0,0,0,0,0,0,0,0,0,0,0,0,0,0,0,0,0,0,0,0,0,0,0,0,0,0,0,0,0,0,0,0,0,0,0,0,0,0,0,0,0,0,0,0,0,0,0,0,0,0,0],"id":0,"left_children":[1,3,5,7,9,11,13,15,17,19,21,23,25,27,29,31,33,35,37,39,41,43,45,47,49,51,-1,53,55,57,59,-1,-1,-1,-1,-1,-1,-1,-1,-1,-1,-1,-1,-1,-1,-1,-1,-1,-1,-1,-1,-1,-1,-1,-1,-1,-1,-1,-1,-1,-1],"loss_changes":[4.313965E0,3.4633942E0,3.6833496E0,5.6300354E0,2.4389877E0,5.7020683E0,3.0999146E0,1.8151436E0,3.4280548E0,4.5281525E0,2.7537613E0,2.1600227E0,1.3432217E-1,5.4284515E0,2.0352173E0,2.068994E0,1.8773594E0,6.204855E0,2.7851694E0,2.8491287E0,1.6905646E0,2.5728378E0,4.357705E0,2.4970722E0,3.9903126E0,6.5454566E-1,0E0,4.2259445E0,2.5391245E0,2.3742065E0,4.305538E0,0E0,0E0,0E0,0E0,0E0,0E0,0E0,0E0,0E0,0E0,0E0,0E0,0E0,0E0,0E0,0E0,0E0,0E0,0E0,0E0,0E0,0E0,0E0,0E0,0E0,0E0,0E0,0E0,0E0,0E0],"parents":[2147483647,0,0,1,1,2,2,3,3,4,4,5,5,6,6,7,7,8,8,9,9,10,10,11,11,12,12,13,13,14,14,15,15,16,16,17,17,18,18,19,19,20,20,21,21,22,22,23,23,24,24,25,25,27,27,28,28,29,29,30,30],"right_children":[2,4,6,8,10,12,14,16,18,20,22,24,26,28,30,32,34,36,38,40,42,44,46,48,50,52,-1,54,56,58,60,-1,-1,-1,-1,-1,-1,-1,-1,-1,-1,-1,-1,-1,-1,-1,-1,-1,-1,-1,-1,-1,-1,-1,-1,-1,-1,-1,-1,-1,-1],"split_conditions":[1.7E1,3E0,4.6E1,3.92E2,1.1E2,4.92E2,3.1E1,1.4E1,6.07E2,1.5E1,4.47E2,3.6E2,3.2E1,7.07E2,7.1E2,9.5E1,1.5E1,2.1E1,3.3E1,5.69E2,2E1,2.6E1,4.9E1,5E1,2.6E1,2.7E1,1.24528304E-1,8.9E1,2E1,4.59E2,4.29E2,-3.7267122E-3,3.5952847E-2,8.107108E-3,1.6692568E-2,1.0645161E-1,2.7057493E-2,-2.8402373E-2,1.7266182E-2,1.2529467E-2,3.1479534E-2,-6.31579E-2,-7.55668E-3,2.9766118E-2,2.1001326E-2,6.382979E-2,9.43476E-3,4.3761995E-2,2.147505E-2,1.4754094E-2,4.6040814E-2,-2.5544848E-9,8.1818186E-2,2.2625824E-2,4.2975202E-2,9.272727E-2,3.1199997E-2,2.0823421E-2,2.485533E-2,1.8847806E-2,-4.6373415E-3],"split_indices":[8,10,2,3,3,3,3,6,2,8,3,3,2,2,2,3,5,0,6,2,3,0,2,3,0,0,0,8,3,3,3,0,0,0,0,0,0,0,0,0,0,0,0,0,0,0,0,0,0,0,0,0,0,0,0,0,0,0,0,0,0],"split_type":[0,0,0,0,0,0,0,0,0,0,0,0,0,0,0,0,0,0,0,0,0,0,0,0,0,0,0,0,0,0,0,0,0,0,0,0,0,0,0,0,0,0,0,0,0,0,0,0,0,0,0,0,0,0,0,0,0,0,0,0,0],"sum_hessian":[2.4849775E4,4.179111E3,2.0670666E4,1.6995554E3,2.4795554E3,7.2088885E2,1.9949777E4,1.3324443E3,3.6711108E2,4.822222E2,1.9973333E3,7.1199994E2,8.888888E0,8.711111E2,1.9078666E4,7.244444E1,1.2599999E3,3.0399997E2,6.3111107E1,4.3377774E2,4.8444443E1,1.7222222E3,2.7511108E2,5.1688885E2,1.951111E2,3.9999998E0,4.8888884E0,8.4088885E2,3.0222221E1,1.8497332E4,5.813333E2,1.6888887E1,5.5555553E1,9.035555E2,3.5644443E2,9.333333E0,2.9466666E2,1.7777777E1,4.5333332E1,3.2888885E2,1.04888885E2,5.333333E0,4.3111107E1,4.693333E2,1.2528888E3,1.4666666E1,2.6044443E2,5.6888885E1,4.5999997E2,5.9999996E1,1.351111E2,1.3333333E0,2.6666665E0,7.2088885E2,1.1999999E2,1.7333332E1,1.2888888E1,1.686622E4,1.631111E3,4.8888885E2,9.244444E1],"tree_param":{"num_deleted":"0","num_feature":"12","num_nodes":"61","size_leaf_vector":"1"}},{"base_weights":[-4.0671372E-1,-4.0901053E-1,-3.6693978E-1,-4.1102195E-1,-3.692846E-1,-2.3768742E-1,-3.831947E-1,-4.118213E-1,-3.250921E-1,5.454545E-1,-3.7189847E-1,-4.7368428E-1,-1.7600004E-1,-4.310456E-1,-3.4694535E-1,-4.038375E-1,-4.1970855E-1,-2.561852E-1,-4.5205486E-1,8.571428E-2,-2.5544848E-9,-2.9956168E-1,-3.8953E-1,2.7272725E-1,-5.517242E-1,3.1578943E-1,-2.0055716E-1,-3.544376E-1,-4.761742E-1,3.9999998E-1,-3.5183704E-1,-3.9837584E-2,-4.3681033E-2,-5.0776172E-2,-4.178804E-2,-4.5283064E-3,-3.0992985E-2,-6.057008E-2,-1.7142862E-2,-3.1014213E-2,8.571428E-2,-4.448121E-2,-3.5143387E-2,-2.5544848E-9,4.285714E-2,-3.5779823E-2,-6.52174E-2,-1.463415E-2,9.6E-2,-2.3853216E-2,1.7142853E-2,-5.6962032E-2,-3.192733E-2,-2.9770998E-2,-5.021714E-2,-4.2857148E-2,8.1818186E-2,-3.6161866E-2,-1.9480525E-2],"categories":[],"categories_nodes":[],"categories_segments":[],"categories_sizes":[],"default_left":[0,0,0,0,0,0,0,0,0,0,0,0,0,0,0,0,0,0,0,0,0,0,0,0,0,0,0,0,0,0,0,0,0,0,0,0,0,0,0,0,0,0,0,0,0,0,0,0,0,0,0,0,0,0,0,0,0,0,0],"id":1,"left_children":[1,3,5,7,9,11,13,15,17,19,21,23,25,27,29,31,33,35,37,-1,-1,39,41,43,45,47,49,51,53,55,57,-1,-1,-1,-1,-1,-1,-1,-1,-1,-1,-1,-1,-1,-1,-1,-1,-1,-1,-1,-1,-1,-1,-1,-1,-1,-1,-1,-1],"loss_changes":[2.1259766E0,1.7297363E0,2.787033E0,1.4047852E0,2.9395294E0,2.1828299E0,1.9583282E0,1.2280273E0,1.73209E0,6.233767E-1,1.3396759E0,1.9950504E0,1.5729501E0,1.6278305E0,2.6858368E0,1.8166504E0,1.5809326E0,1.5640297E0,3.0437117E0,0E0,0E0,3.0575676E0,1.7702179E0,1.5584418E-1,3.3156776E-1,2.025982E0,1.7313209E0,1.3054218E0,1.3542328E0,2.083117E0,9.9333954E-1,0E0,0E0,0E0,0E0,0E0,0E0,0E0,0E0,0E0,0E0,0E0,0E0,0E0,0E0,0E0,0E0,0E0,0E0,0E0,0E0,0E0,0E0,0E0,0E0,0E0,0E0,0E0,0E0],"parents":[2147483647,0,0,1,1,2,2,3,3,4,4,5,5,6,6,7,7,8,8,9,9,10,10,11,11,12,12,13,13,14,14,15,15,16,16,17,17,18,18,21,21,22,22,23,23,24,24,25,25,26,26,27,27,28,28,29,29,30,30],"right_children":[2,4,6,8,10,12,14,16,18,20,22,24,26,28,30,32,34,36,38,-1,-1,40,42,44,46,48,50,52,54,56,58,-1,-1,-1,-1,-1,-1,-1,-1,-1,-1,-1,-1,-1,-1,-1,-1,-1,-1,-1,-1,-1,-1,-1,-1,-1,-1,-1,-1],"split_conditions":[2.88E2,4E1,1.1E1,7.24E2,2.4E1,1.56E2,2.13E2,1E0,1.5E1,1.67E2,2.1E1,6.4E1,1.85E2,8.7E1,2.15E2,1.6E1,2E0,2.1E1,3.49E2,8.571428E-2,-2.5544848E-9,4.94E2,5.3E1,2.9E1,7.7E1,3.6E1,4.55E2,2.2E1,2.2E1,1.2E1,9.6E1,-3.9837584E-2,-4.3681033E-2,-5.0776172E-2,-4.178804E-2,-4.5283064E-3,-3.0992985E-2,-6.057008E-2,-1.7142862E-2,-3.1014213E-2,8.571428E-2,-4.448121E-2,-3.5143387E-2,-2.5544848E-9,4.285714E-2,-3.5779823E-2,-6.52174E-2,-1.463415E-2,9.6E-2,-2.3853216E-2,1.7142853E-2,-5.6962032E-2,-3.192733E-2,-2.9770998E-2,-5.021714E-2,-4.2857148E-2,8.1818186E-2,-3.6161866E-2,-1.9480525E-2],"split_indices":[7,0,8,2,2,2,3,4,5,3,8,3,2,3,3,5,8,8,3,0,0,3,8,0,2,0,3,8,8,5,8,0,0,0,0,0,0,0,0,0,0,0,0,0,0,0,0,0,0,0,0,0,0,0,0,0,0,0,0],"split_type":[0,0,0,0,0,0,0,0,0,0,0,0,0,0,0,0,0,0,0,0,0,0,0,0,0,0,0,0,0,0,0,0,0,0,0,0,0,0,0,0,0,0,0,0,0,0,0,0,0,0,0,0,0,0,0,0,0,0,0],"sum_hessian":[2.4913332E4,2.3544443E4,1.3688888E3,2.2400887E4,1.1435555E3,1.5466666E2,1.2142222E3,2.2190666E4,2.1022221E2,2.6666665E0,1.1408888E3,3.0666664E1,1.2399999E2,5.186666E2,6.9555554E2,1.1053777E4,1.1136889E4,1.3822221E2,7.199999E1,1.3333333E0,1.3333333E0,2.271111E2,9.137777E2,2.6666665E0,2.7999998E1,5.333333E0,1.1866666E2,1.9555554E2,3.2311108E2,3.9999998E0,6.9155554E2,9.494222E3,1.5595554E3,2.2088887E2,1.0915999E4,2.8444443E1,1.0977777E2,4.5777775E1,2.6222221E1,2.2577777E2,1.3333333E0,3.6844443E2,5.453333E2,1.3333333E0,1.3333333E0,1.1111111E1,1.6888887E1,3.5555553E0,1.7777777E0,1.0799999E2,1.0666666E1,2.5333332E1,1.7022221E2,4.2666664E1,2.8044443E2,1.3333333E0,2.6666665E0,6.497777E2,4.1777775E1],"tree_param":{"num_deleted":"0","num_feature":"12","num_nodes":"59","size_leaf_vector":"1"}},{"base_weights":[1.9365723E-1,2.020716E-1,1.7451386E-1,2.0733944E-1,1.7031154E-1,1.3336809E-1,1.9278249E-1,1.7013678E-1,2.1208376E-1,1.7368633E-1,-4.186047E-1,-1.1804618E-1,1.4241482E-1,1.8367343E-1,3.0863118E-1,1.7885737E-1,-3.0324915E-1,2.9729065E-1,2.0900892E-1,1.6910714E-1,5.2313167E-1,-9.230773E-2,-6.575343E-2,-2.2831863E-1,2.3204416E-1,1.6789652E-1,6.481661E-2,1.465241E-1,1.989083E-1,3.4097418E-1,-2.9126259E-2,2.016231E-2,8.977306E-3,-3.9759044E-2,4.054054E-2,3.562316E-2,1.2297422E-2,1.9884793E-2,2.3889212E-2,1.4982301E-2,2.546957E-2,-1.9480525E-2,7.605634E-2,-5.1724143E-2,1.9999998E-2,-4.0540546E-2,2.4896224E-3,-2.6966298E-2,6.534653E-2,1.9816564E-2,1.0644585E-2,1.0154522E-2,-8.904816E-3,1.711378E-2,6.8776193E-3,2.548316E-2,1.7736416E-2,5.1995438E-2,2.7056752E-2,2.2966504E-2,-5.229358E-2],"categories":[],"categories_nodes":[],"categories_segments":[],"categories_sizes":[],"default_left":[0,0,0,0,0,0,0,0,0,0,0,0,0,0,0,0,0,0,0,0,0,0,0,0,0,0,0,0,0,0,0,0,0,0,0,0,0,0,0,0,0,0,0,0,0,0,0,0,0,0,0,0,0,0,0,0,0,0,0,0,0],"id":2,"left_children":[1,3,5,7,9,11,13,15,17,19,21,23,25,27,29,31,33,35,37,39,41,43,-1,45,47,49,51,53,55,57,59,-1,-1,-1,-1,-1,-1,-1,-1,-1,-1,-1,-1,-1,-1,-1,-1,-1,-1,-1,-1,-1,-1,-1,-1,-1,-1,-1,-1,-1,-1],"loss_changes":[3.9733887E0,2.855835E0,5.6914825E0,2.5793457E0,4.970024E0,5.3433876E0,5.4993134E0,6.993744E0,3.3799438E0,3.833191E0,1.0567598E0,3.2143266E0,4.4598694E0,2.734848E0,4.186573E0,3.3306923E0,2.218845E0,4.633312E0,3.803833E0,3.9569778E0,5.470332E0,1.0005305E0,0E0,2.825112E0,4.4283075E0,3.143692E0,3.1768754E0,2.713499E0,4.1241302E0,4.25721E0,4.507681E0,0E0,0E0,0E0,0E0,0E0,0E0,0E0,0E0,0E0,0E0,0E0,0E0,0E0,0E0,0E0,0E0,0E0,0E0,0E0,0E0,0E0,0E0,0E0,0E0,0E0,0E0,0E0,0E0,0E0,0E0],"parents":[2147483647,0,0,1,1,2,2,3,3,4,4,5,5,6,6,7,7,8,8,9,9,10,10,11,11,12,12,13,13,14,14,15,15,16,16,17,17,18,18,19,19,20,20,21,21,23,23,24,24,25,25,26,26,27,27,28,28,29,29,30,30],"right_children":[2,4,6,8,10,12,14,16,18,20,22,24,26,28,30,32,34,36,38,40,42,44,-1,46,48,50,52,54,56,58,60,-1,-1,-1,-1,-1,-1,-1,-1,-1,-1,-1,-1,-1,-1,-1,-1,-1,-1,-1,-1,-1,-1,-1,-1,-1,-1,-1,-1,-1,-1],"split_conditions":[7E1,1.6E1,1.35E2,1.01E2,4.98E2,4.9E1,7.6E1,4.92E2,1.23E2,4.92E2,2.1E1,2.6E1,1.16E2,2.23E2,4.5E2,3.96E2,6.3E1,6.3E1,6.3E1,2.7E1,1.7E1,4.7E1,-6.575343E-2,4E0,8.6E1,5.7E1,2.7E1,6E1,3.64E2,1.2E1,5.45E2,2.016231E-2,8.977306E-3,-3.9759044E-2,4.054054E-2,3.562316E-2,1.2297422E-2,1.9884793E-2,2.3889212E-2,1.4982301E-2,2.546957E-2,-1.9480525E-2,7.605634E-2,-5.1724143E-2,1.9999998E-2,-4.0540546E-2,2.4896224E-3,-2.6966298E-2,6.534653E-2,1.9816564E-2,1.0644585E-2,1.0154522E-2,-8.904816E-3,1.711378E-2,6.8776193E-3,2.548316E-2,1.7736416E-2,5.1995438E-2,2.7056752E-2,2.2966504E-2,-5.229358E-2],"split_indices":[8,5,7,2,3,2,6,3,2,3,8,1,7,2,3,3,8,6,6,1,8,6,0,10,8,6,1,6,2,5,2,0,0,0,0,0,0,0,0,0,0,0,0,0,0,0,0,0,0,0,0,0,0,0,0,0,0,0,0,0,0],"split_type":[0,0,0,0,0,0,0,0,0,0,0,0,0,0,0,0,0,0,0,0,0,0,0,0,0,0,0,0,0,0,0,0,0,0,0,0,0,0,0,0,0,0,0,0,0,0,0,0,0,0,0,0,0,0,0,0,0,0,0,0,0],"sum_hessian":[2.4884887E4,1.7279998E4,7.6048887E3,1.4816888E4,2.463111E3,2.3408887E3,5.2639995E3,1.6799999E3,1.3136888E4,2.4497776E3,1.3333332E1,8.0888885E1,2.2599998E3,4.8826665E3,3.813333E2,1.6502222E3,2.9777777E1,4.542222E2,1.2682666E4,2.4195554E3,3.0222221E1,6.222222E0,7.1111107E0,6.1777775E1,1.911111E1,1.7004443E3,5.5955554E2,1.4231111E3,3.4595554E3,3.4799997E2,3.3333332E1,1.3133333E3,3.3688885E2,2.6666664E1,3.111111E0,3.3866666E2,1.1555555E2,9.470222E3,3.2124443E3,1.9768888E3,4.4266663E2,7.5555553E0,2.2666666E1,2.222222E0,3.9999998E0,3.5999996E1,2.5777777E1,8.888888E0,1.0222221E1,1.1377777E3,5.626666E2,4.5199997E2,1.0755555E2,1.0799999E3,3.4311108E2,9.591111E2,2.5004443E3,9.6444435E1,2.5155554E2,2.2222221E1,1.1111111E1],"tree_param":{"num_deleted":"0","num_feature":"12","num_nodes":"61","size_leaf_vector":"1"}},{"base_weights":[1.9410968E-1,2.0041782E-1,1.5481122E-1,1.793983E-1,2.0672393E-1,2.339917E-1,1.4183977E-1,1.7114839E-1,2.55618E-1,2.4192107E-1,2.0095487E-1,7.2270595E-2,2.6072958E-1,2.031121E-1,1.1879781E-1,8.650861E-2,1.8321508E-1,2.7977094E-1,-9.0552375E-2,2.7450696E-1,2.0878884E-1,2.0392044E-1,1.0219165E-1,1.5075096E-1,-5.4453784E-1,2.018288E-1,3.7951455E-1,2.1664965E-1,-7.2541074E-3,-8.950115E-3,1.2913314E-1,-8.9612035E-3,1.4101329E-2,1.7698389E-2,2.8283006E-2,3.014995E-2,-2.6350615E-3,6.139533E-2,-1.8776076E-2,3.882992E-2,2.3044342E-2,1.5428719E-2,2.596179E-2,2.3447713E-2,1.9564461E-2,-1.8114224E-3,2.0245807E-2,2.922613E-2,-2.2037944E-2,-1.1527875E-3,-6.480575E-2,2.2152068E-2,-2.6899178E-2,4.812242E-2,1.7796779E-2,2.2234581E-2,-2.5935149E-2,-6.1913688E-2,6.6095847E-3,-1.8456647E-2,9.81421E-3,1.4846287E-2,6.075314E-3],"categories":[],"categories_nodes":[],"categories_segments":[],"categories_sizes":[],"default_left":[0,0,0,0,0,0,0,0,0,0,0,0,0,0,0,0,0,0,0,0,0,0,0,0,0,0,0,0,0,0,0,0,0,0,0,0,0,0,0,0,0,0,0,0,0,0,0,0,0,0,0,0,0,0,0,0,0,0,0,0,0,0,0],"id":3,"left_children":[1,3,5,7,9,11,13,15,17,19,21,23,25,27,29,31,33,35,37,39,41,43,45,47,49,51,53,55,57,59,61,-1,-1,-1,-1,-1,-1,-1,-1,-1,-1,-1,-1,-1,-1,-1,-1,-1,-1,-1,-1,-1,-1,-1,-1,-1,-1,-1,-1,-1,-1,-1,-1],"loss_changes":[6.199951E0,2.833252E0,3.5420532E0,3.103424E0,3.3324585E0,2.093235E0,4.2022133E0,4.599716E0,4.095476E0,2.4690094E0,4.1709595E0,3.503636E0,2.8532887E0,2.327343E0,2.876587E0,5.443838E0,2.404541E0,3.0363693E0,2.3413513E0,5.8097305E0,3.1857185E0,3.4675903E0,5.06059E0,3.3986847E0,4.447074E-1,2.6748838E0,2.736679E0,2.138195E0,2.3004925E0,3.1014109E0,2.6541977E0,0E0,0E0,0E0,0E0,0E0,0E0,0E0,0E0,0E0,0E0,0E0,0E0,0E0,0E0,0E0,0E0,0E0,0E0,0E0,0E0,0E0,0E0,0E0,0E0,0E0,0E0,0E0,0E0,0E0,0E0,0E0,0E0],"parents":[2147483647,0,0,1,1,2,2,3,3,4,4,5,5,6,6,7,7,8,8,9,9,10,10,11,11,12,12,13,13,14,14,15,15,16,16,17,17,18,18,19,19,20,20,21,21,22,22,23,23,24,24,25,25,26,26,27,27,28,28,29,29,30,30],"right_children":[2,4,6,8,10,12,14,16,18,20,22,24,26,28,30,32,34,36,38,40,42,44,46,48,50,52,54,56,58,60,62,-1,-1,-1,-1,-1,-1,-1,-1,-1,-1,-1,-1,-1,-1,-1,-1,-1,-1,-1,-1,-1,-1,-1,-1,-1,-1,-1,-1,-1,-1,-1,-1],"split_conditions":[2.8E1,1.15E2,1.2E2,9.1E1,2E1,2E1,3E1,7.1E1,4.67E2,1E0,9.8E1,9.2E1,6.9E1,2.88E2,7.8E1,2.7E1,4.76E2,1.11E2,6.6E1,1.48E2,4.9E1,1.7E2,3.43E2,1.7E1,1.1E1,6.6E1,2.16E2,1E2,1.73E2,4.1E1,5.99E2,-8.9612035E-3,1.4101329E-2,1.7698389E-2,2.8283006E-2,3.014995E-2,-2.6350615E-3,6.139533E-2,-1.8776076E-2,3.882992E-2,2.3044342E-2,1.5428719E-2,2.596179E-2,2.3447713E-2,1.9564461E-2,-1.8114224E-3,2.0245807E-2,2.922613E-2,-2.2037944E-2,-1.1527875E-3,-6.480575E-2,2.2152068E-2,-2.6899178E-2,4.812242E-2,1.7796779E-2,2.2234581E-2,-2.5935149E-2,-6.1913688E-2,6.6095847E-3,-1.8456647E-2,9.81421E-3,1.4846287E-2,6.075314E-3],"split_indices":[1,7,2,8,6,6,6,3,3,9,8,8,8,7,7,6,3,7,2,3,8,2,2,6,6,8,7,8,2,8,2,0,0,0,0,0,0,0,0,0,0,0,0,0,0,0,0,0,0,0,0,0,0,0,0,0,0,0,0,0,0,0,0],"split_type":[0,0,0,0,0,0,0,0,0,0,0,0,0,0,0,0,0,0,0,0,0,0,0,0,0,0,0,0,0,0,0,0,0,0,0,0,0,0,0,0,0,0,0,0,0,0,0,0,0,0,0,0,0,0,0,0,0,0,0,0,0,0,0],"sum_hessian":[2.5133867E4,2.165391E4,3.4799565E3,5.00401E3,1.66499E4,4.8744553E2,2.992511E3,4.5182104E3,4.857991E2,2.3389558E3,1.4310945E4,6.968236E1,4.1776315E2,8.156777E2,2.1768333E3,5.6478564E2,3.9534248E3,4.54294E2,3.1505102E1,1.1755275E3,1.1634283E3,1.3892724E4,4.182219E2,6.2487305E1,7.195053E0,2.8108386E2,1.366793E2,7.663325E2,4.9345165E1,1.6294287E2,2.0138904E3,1.3332602E2,4.3145966E2,3.7232986E3,2.301263E2,4.2419937E2,3.009462E1,3.1754656E0,2.8329638E1,3.2595364E2,8.4957385E2,5.633787E2,6.000497E2,2.954937E3,1.0937786E4,1.9048524E2,2.2773665E2,4.5392036E1,1.7095268E1,1.3508828E0,5.8441706E0,2.7030783E2,1.0776016E1,8.991596E1,4.6763344E1,7.5779706E2,8.535446E0,4.485598E0,4.4859566E1,6.144999E1,1.0149288E2,1.5691504E3,4.4474E2],"tree_param":{"num_deleted":"0","num_feature":"12","num_nodes":"63","size_leaf_vector":"1"}},{"base_weights":[-3.8399974E-1,-3.7281471E-1,-3.9078E-1,-3.7603927E-1,-3.3057585E-1,-4.0576667E-1,-3.829516E-1,-3.6963314E-1,-4.029226E-1,-3.4533787E-1,-1.0638315E-1,-4.0819815E-1,-2.811955E-1,-3.4186256E-1,-3.87743E-1,-3.7934455E-1,-3.240424E-1,-3.872812E-1,-4.686934E-1,-3.6543912E-1,-1.8117107E-1,-1.7795725E-1,5.3628623E-1,-4.0506655E-1,-5.0521E-1,-2.2472945E-1,-6.764468E-2,-2.9496428E-1,-3.9015874E-1,-4.029513E-1,-3.7841457E-1,-2.1003915E-2,-3.8131762E-2,-4.2398445E-2,-2.916173E-2,-4.238342E-2,-3.4333196E-2,-4.7401216E-2,4.4287454E-2,-3.4143366E-2,-4.9753785E-2,3.116757E-2,-2.5260303E-2,-5.0060214E-3,-5.5737685E-2,-4.1870534E-2,1.0601083E-1,-4.1892648E-2,-3.8695034E-2,8.669718E-3,-5.245741E-2,3.600572E-2,-2.7063582E-2,4.3172862E-2,-3.0110443E-2,-4.920965E-2,-3.3047985E-2,-3.7631616E-2,-4.289606E-2,-3.6047794E-2,-4.0670622E-2],"categories":[],"categories_nodes":[],"categories_segments":[],"categories_sizes":[],"default_left":[0,0,0,0,0,0,0,0,0,0,0,0,0,0,0,0,0,0,0,0,0,0,0,0,0,0,0,0,0,0,0,0,0,0,0,0,0,0,0,0,0,0,0,0,0,0,0,0,0,0,0,0,0,0,0,0,0,0,0,0,0],"id":4,"left_children":[1,3,5,7,9,11,13,15,17,19,21,23,25,27,29,31,33,35,37,39,41,43,45,47,49,51,-1,53,55,57,59,-1,-1,-1,-1,-1,-1,-1,-1,-1,-1,-1,-1,-1,-1,-1,-1,-1,-1,-1,-1,-1,-1,-1,-1,-1,-1,-1,-1,-1,-1],"loss_changes":[1.7055664E0,1.133667E0,1.6254883E0,1.3275146E0,2.1585617E0,1.4576416E0,1.8341064E0,2.947876E0,1.5043335E0,1.9860382E0,2.0468595E0,1.3417358E0,2.1379986E0,2.2667465E0,1.1153564E0,1.8278809E0,3.8455353E0,1.9905396E0,1.713356E0,1.5839767E0,2.536901E0,1.8609111E0,2.6951861E0,1.0771484E0,1.823452E0,2.547855E0,0E0,2.5287971E0,2.970192E0,2.1818848E0,2.6730347E0,0E0,0E0,0E0,0E0,0E0,0E0,0E0,0E0,0E0,0E0,0E0,0E0,0E0,0E0,0E0,0E0,0E0,0E0,0E0,0E0,0E0,0E0,0E0,0E0,0E0,0E0,0E0,0E0,0E0,0E0],"parents":[2147483647,0,0,1,1,2,2,3,3,4,4,5,5,6,6,7,7,8,8,9,9,10,10,11,11,12,12,13,13,14,14,15,15,16,16,17,17,18,18,19,19,20,20,21,21,22,22,23,23,24,24,25,25,27,27,28,28,29,29,30,30],"right_children":[2,4,6,8,10,12,14,16,18,20,22,24,26,28,30,32,34,36,38,40,42,44,46,48,50,52,-1,54,56,58,60,-1,-1,-1,-1,-1,-1,-1,-1,-1,-1,-1,-1,-1,-1,-1,-1,-1,-1,-1,-1,-1,-1,-1,-1,-1,-1,-1,-1,-1,-1],"split_conditions":[3.7E1,6.79E2,5.2E1,5.53E2,2.88E2,7.16E2,5.5E1,4.6E2,2.57E2,3.4E1,9.5E1,6.93E2,9.1E1,1E0,1.94E2,6.3E1,1.25E2,2.5E1,4.98E2,2.6E2,8.4E1,1.5E1,6.9E2,5.7E1,2.7E1,5.8E1,-6.764468E-2,1.4E1,2.93E2,1.02E2,3.83E2,-2.1003915E-2,-3.8131762E-2,-4.2398445E-2,-2.916173E-2,-4.238342E-2,-3.4333196E-2,-4.7401216E-2,4.4287454E-2,-3.4143366E-2,-4.9753785E-2,3.116757E-2,-2.5260303E-2,-5.0060214E-3,-5.5737685E-2,-4.1870534E-2,1.0601083E-1,-4.1892648E-2,-3.8695034E-2,8.669718E-3,-5.245741E-2,3.600572E-2,-2.7063582E-2,4.3172862E-2,-3.0110443E-2,-4.920965E-2,-3.3047985E-2,-3.7631616E-2,-4.289606E-2,-3.6047794E-2,-4.0670622E-2],"split_indices":[6,2,6,2,7,2,6,2,7,6,8,2,8,11,3,7,3,6,3,7,7,5,2,8,3,3,0,3,2,3,3,0,0,0,0,0,0,0,0,0,0,0,0,0,0,0,0,0,0,0,0,0,0,0,0,0,0,0,0,0,0],"split_type":[0,0,0,0,0,0,0,0,0,0,0,0,0,0,0,0,0,0,0,0,0,0,0,0,0,0,0,0,0,0,0,0,0,0,0,0,0,0,0,0,0,0,0,0,0,0,0,0,0,0,0,0,0,0,0,0,0,0,0,0,0],"sum_hessian":[2.4412781E4,9.234739E3,1.5178042E4,8.572415E3,6.6232404E2,5.190523E3,9.98752E3,6.934676E3,1.637739E3,6.209004E2,4.1423645E1,5.088916E3,1.01607216E2,1.0505741E3,8.936945E3,5.710865E3,1.2238104E3,1.3286523E3,3.0908667E2,5.520759E2,6.882446E1,3.792323E1,3.5004141E0,4.934793E3,1.5412265E2,9.02785E1,1.1328713E1,5.3660657E2,5.139675E2,3.3816167E3,5.5553286E3,6.702458E1,5.643841E3,2.9683063E2,9.269798E2,7.206435E2,6.080089E2,3.077709E2,1.3157533E0,4.7021194E2,8.186399E1,8.286724E0,6.053774E1,2.9209167E1,8.714063E0,1.3109907E0,2.1894233E0,2.7832952E3,2.151498E3,4.77221E0,1.4935045E2,6.0730124E0,8.420549E1,3.915291E0,5.326913E2,1.8711313E2,3.2685443E2,1.6783492E3,1.7032673E3,3.408261E3,2.1470676E3],"tree_param":{"num_deleted":"0","num_feature":"12","num_nodes":"61","size_leaf_vector":"1"}},{"base_weights":[1.8239045E-1,1.9454867E-1,1.7075597E-1,1.8412472E-1,2.2748333E-1,1.9674782E-1,1.587408E-1,2.217585E-1,1.7342238E-1,1.5567555E-1,2.3812392E-1,2.0434865E-1,1.156808E-1,1.4958921E-1,1.948726E-1,2.4366407E-1,1.696322E-1,1.6885135E-1,2.7834722E-1,6.573797E-3,1.990915E-1,2.3087396E-1,3.5008126E-1,2.1303447E-1,1.3992922E-1,-2.6848182E-2,2.3230955E-1,1.6986325E-1,1.29622E-1,9.732966E-2,2.1875401E-1,-1.1668813E-2,2.4973117E-2,3.2123014E-2,1.3887393E-2,1.8961022E-2,1.4770913E-2,1.37773E-2,3.9465055E-2,1.5622861E-2,-2.2163345E-2,1.0825433E-2,2.8854048E-2,2.3692194E-2,5.377584E-3,5.7862945E-2,2.2302944E-2,2.8040398E-2,2.0388715E-2,8.624102E-3,2.8813904E-2,-1.2770732E-2,8.080555E-3,8.514947E-3,3.484322E-2,1.6723644E-2,4.8885047E-2,-1.0584148E-2,1.3328937E-2,4.488186E-3,2.968653E-2,4.5964323E-2,2.0621391E-2],"categories":[],"categories_nodes":[],"categories_segments":[],"categories_sizes":[],"default_left":[0,0,0,0,0,0,0,0,0,0,0,0,0,0,0,0,0,0,0,0,0,0,0,0,0,0,0,0,0,0,0,0,0,0,0,0,0,0,0,0,0,0,0,0,0,0,0,0,0,0,0,0,0,0,0,0,0,0,0,0,0,0,0],"id":5,"left_children":[1,3,5,7,9,11,13,15,17,19,21,23,25,27,29,31,33,35,37,39,41,43,45,47,49,51,53,55,57,59,61,-1,-1,-1,-1,-1,-1,-1,-1,-1,-1,-1,-1,-1,-1,-1,-1,-1,-1,-1,-1,-1,-1,-1,-1,-1,-1,-1,-1,-1,-1,-1,-1],"loss_changes":[3.5212402E0,4.1741333E0,3.9814453E0,3.7207031E0,2.2155304E0,2.4766693E0,2.8780823E0,2.3142624E0,3.4404297E0,2.4803705E0,2.00177E0,2.045288E0,5.826705E0,2.819641E0,4.110153E0,3.199791E0,2.8170261E0,3.0312042E0,4.8832493E0,3.0225968E0,2.380971E0,2.5714111E0,4.34585E0,1.9555511E0,3.5044794E0,1.7309927E0,3.2628527E0,2.8340607E0,3.071682E0,3.655988E0,4.2066116E0,0E0,0E0,0E0,0E0,0E0,0E0,0E0,0E0,0E0,0E0,0E0,0E0,0E0,0E0,0E0,0E0,0E0,0E0,0E0,0E0,0E0,0E0,0E0,0E0,0E0,0E0,0E0,0E0,0E0,0E0,0E0,0E0],"parents":[2147483647,0,0,1,1,2,2,3,3,4,4,5,5,6,6,7,7,8,8,9,9,10,10,11,11,12,12,13,13,14,14,15,15,16,16,17,17,18,18,19,19,20,20,21,21,22,22,23,23,24,24,25,25,26,26,27,27,28,28,29,29,30,30],"right_children":[2,4,6,8,10,12,14,16,18,20,22,24,26,28,30,32,34,36,38,40,42,44,46,48,50,52,54,56,58,60,62,-1,-1,-1,-1,-1,-1,-1,-1,-1,-1,-1,-1,-1,-1,-1,-1,-1,-1,-1,-1,-1,-1,-1,-1,-1,-1,-1,-1,-1,-1,-1,-1],"split_conditions":[2.5E2,6.4E1,1.6E1,1.14E2,1.14E2,6.68E2,2.8E1,1.5E1,2.94E2,6E1,2.87E2,2.72E2,6.96E2,1E0,2.99E2,3E1,1.34E2,1E0,1.9E1,8E1,1E0,2.8E2,2.92E2,9.9E1,2.93E2,3.85E2,1.3E1,2.99E2,2.54E2,2.56E2,7.2E1,-1.1668813E-2,2.4973117E-2,3.2123014E-2,1.3887393E-2,1.8961022E-2,1.4770913E-2,1.37773E-2,3.9465055E-2,1.5622861E-2,-2.2163345E-2,1.0825433E-2,2.8854048E-2,2.3692194E-2,5.377584E-3,5.7862945E-2,2.2302944E-2,2.8040398E-2,2.0388715E-2,8.624102E-3,2.8813904E-2,-1.2770732E-2,8.080555E-3,8.514947E-3,3.484322E-2,1.6723644E-2,4.8885047E-2,-1.0584148E-2,1.3328937E-2,4.488186E-3,2.968653E-2,4.5964323E-2,2.0621391E-2],"split_indices":[3,6,1,7,2,2,1,5,7,3,7,7,2,11,3,2,2,4,1,2,4,7,7,2,7,3,5,7,3,7,7,0,0,0,0,0,0,0,0,0,0,0,0,0,0,0,0,0,0,0,0,0,0,0,0,0,0,0,0,0,0,0,0],"split_type":[0,0,0,0,0,0,0,0,0,0,0,0,0,0,0,0,0,0,0,0,0,0,0,0,0,0,0,0,0,0,0,0,0,0,0,0,0,0,0,0,0,0,0,0,0,0,0,0,0,0,0,0,0,0,0,0,0,0,0,0,0,0,0],"sum_hessian":[2.5127363E4,1.2279436E4,1.2847929E4,9.3323125E3,2.9471228E3,4.0567593E3,8.791169E3,2.061948E3,7.2703647E3,3.8236597E2,2.5647568E3,3.7076133E3,3.491459E2,7.018611E3,1.7725585E3,1.449243E3,6.127049E2,6.969356E3,3.0100882E2,8.648958E1,2.958764E2,2.411649E3,1.5310786E2,3.2650698E3,4.4254346E2,1.5747256E2,1.9167334E2,3.4788218E3,3.5397888E3,3.4962018E2,1.4229382E3,2.369434E1,1.4255487E3,1.0175283E2,5.109521E2,3.5125393E3,3.4568167E3,1.372732E2,1.6373561E2,5.242529E1,3.406429E1,1.478957E2,1.479807E2,2.3316833E3,7.996569E1,5.343379E1,9.967408E1,3.8678275E2,2.878287E3,3.260247E2,1.1651877E2,8.12058E1,7.626676E1,8.530331E1,1.0637003E2,3.4519202E3,2.6901772E1,5.3859734E1,3.4859292E3,2.7782025E2,7.1799934E1,6.864512E1,1.3542931E3],"tree_param":{"num_deleted":"0","num_feature":"12","num_nodes":"63","size_leaf_vector":"1"}},{"base_weights":[1.7858623E-1,1.8068452E-1,1.1090109E-1,1.758872E-1,2.0956385E-1,1.48888E-1,-8.489599E-3,1.4475328E-1,1.8200307E-1,6.2332255E-1,2.0755467E-1,2.1907642E-2,1.9772844E-1,-2.9531294E-1,4.120808E-2,1.6303822E-1,8.2723804E-2,2.2141282E-1,1.7893487E-1,7.483939E-1,-4.395328E-2,2.3979145E-1,1.8563735E-1,5.204792E-1,-7.834685E-3,9.3496937E-1,1.8166612E-1,-4.6609408E-1,4.7665504E-1,1.8557718E-1,-5.834195E-2,4.214978E-2,1.5716555E-2,-9.56095E-5,1.3928694E-2,3.6375593E-2,2.0989947E-2,1.1346416E-2,1.8087065E-2,-2.3466065E-3,9.208925E-2,2.943032E-2,2.0064937E-2,1.5159637E-2,2.0467838E-2,-2.0833353E-3,7.521906E-2,1.3945564E-2,-8.855702E-3,4.8293788E-2,1.1625941E-1,2.1804823E-2,-6.8602054E-3,-5.8895417E-2,-1.4865597E-2,-4.2929593E-2,8.717078E-2,1.372721E-2,8.594974E-2,7.726778E-5,-4.5585908E-2],"categories":[],"categories_nodes":[],"categories_segments":[],"categories_sizes":[],"default_left":[0,0,0,0,0,0,0,0,0,0,0,0,0,0,0,0,0,0,0,0,0,0,0,0,0,0,0,0,0,0,0,0,0,0,0,0,0,0,0,0,0,0,0,0,0,0,0,0,0,0,0,0,0,0,0,0,0,0,0,0,0],"id":6,"left_children":[1,3,5,7,9,11,13,15,17,19,21,23,25,27,29,31,33,35,37,39,-1,41,43,45,47,49,51,53,55,57,59,-1,-1,-1,-1,-1,-1,-1,-1,-1,-1,-1,-1,-1,-1,-1,-1,-1,-1,-1,-1,-1,-1,-1,-1,-1,-1,-1,-1,-1,-1],"loss_changes":[3.5792236E0,3.3683472E0,3.4689903E0,3.9882812E0,2.7770233E0,3.5933619E0,2.6564195E0,3.9183197E0,2.0908203E0,2.50848E0,2.414795E0,2.4103253E0,4.789936E0,3.8500392E0,2.2957613E0,3.9960022E0,3.7452955E0,2.0023117E0,2.0516968E0,2.024045E0,0E0,2.9394455E0,1.3148651E0,1.1633499E0,1.844775E0,3.3263302E-1,3.7585754E0,8.109579E-1,2.3352537E0,2.002097E0,2.2294774E0,0E0,0E0,0E0,0E0,0E0,0E0,0E0,0E0,0E0,0E0,0E0,0E0,0E0,0E0,0E0,0E0,0E0,0E0,0E0,0E0,0E0,0E0,0E0,0E0,0E0,0E0,0E0,0E0,0E0,0E0],"parents":[2147483647,0,0,1,1,2,2,3,3,4,4,5,5,6,6,7,7,8,8,9,9,10,10,11,11,12,12,13,13,14,14,15,15,16,16,17,17,18,18,19,19,21,21,22,22,23,23,24,24,25,25,26,26,27,27,28,28,29,29,30,30],"right_children":[2,4,6,8,10,12,14,16,18,20,22,24,26,28,30,32,34,36,38,40,-1,42,44,46,48,50,52,54,56,58,60,-1,-1,-1,-1,-1,-1,-1,-1,-1,-1,-1,-1,-1,-1,-1,-1,-1,-1,-1,-1,-1,-1,-1,-1,-1,-1,-1,-1,-1,-1],"split_conditions":[2.94E2,1.6E1,2.6E1,9.8E1,6.1E1,2.12E2,1.5E1,2.6E1,1.12E2,6.76E2,1.8E1,4E0,2.23E2,3E1,3E0,2E0,4E1,7.1E1,1.17E2,1.6E1,-4.395328E-2,3.12E2,3.6E1,2.97E2,8.3E1,2.98E2,3.8E1,5E0,1.73E2,6.96E2,3.9E1,4.214978E-2,1.5716555E-2,-9.56095E-5,1.3928694E-2,3.6375593E-2,2.0989947E-2,1.1346416E-2,1.8087065E-2,-2.3466065E-3,9.208925E-2,2.943032E-2,2.0064937E-2,1.5159637E-2,2.0467838E-2,-2.0833353E-3,7.521906E-2,1.3945564E-2,-8.855702E-3,4.8293788E-2,1.1625941E-1,2.1804823E-2,-6.8602054E-3,-5.8895417E-2,-1.4865597E-2,-4.2929593E-2,8.717078E-2,1.372721E-2,8.594974E-2,7.726778E-5,-4.5585908E-2],"split_indices":[7,5,1,7,7,2,8,1,7,2,1,8,2,1,10,8,8,2,7,8,0,2,8,7,2,7,0,10,2,2,0,0,0,0,0,0,0,0,0,0,0,0,0,0,0,0,0,0,0,0,0,0,0,0,0,0,0,0,0,0,0],"split_type":[0,0,0,0,0,0,0,0,0,0,0,0,0,0,0,0,0,0,0,0,0,0,0,0,0,0,0,0,0,0,0,0,0,0,0,0,0,0,0,0,0,0,0,0,0,0,0,0,0,0,0,0,0,0,0,0,0,0,0,0,0],"sum_hessian":[2.534173E4,2.457812E4,7.6361066E2,2.1082986E4,3.495133E3,5.791072E2,1.8450343E2,3.465571E3,1.7617416E4,1.539578E1,3.4797373E3,1.6126987E2,4.1783734E2,2.6517744E1,1.579857E2,2.675317E3,7.902542E2,1.2673745E3,1.635004E4,1.4039543E1,1.3562366E0,1.4043004E3,2.0754368E3,8.150087E0,1.5311978E2,7.6895046E0,4.1014783E2,2.2038443E1,4.479301E0,6.412557E1,9.386012E1,5.786525E1,2.6174517E3,3.191236E2,4.711306E2,9.255049E1,1.1748241E3,4.7124933E2,1.5878791E4,2.7223072E0,1.1317236E1,5.8419476E2,8.201057E2,7.476938E2,1.327743E3,2.7157571E0,5.43433E0,5.395075E1,9.916903E1,3.6207774E0,4.0687275E0,3.5820364E2,5.1944183E1,1.5272208E1,6.766235E0,1.3338294E0,3.1454716E0,6.09598E1,3.1657689E0,8.257803E1,1.1282093E1],"tree_param":{"num_deleted":"0","num_feature":"12","num_nodes":"61","size_leaf_vector":"1"}},{"base_weights":[-3.6798576E-1,-3.4533632E-1,-3.7323633E-1,-3.4946597E-1,-8.2645915E-2,-3.9694774E-1,-3.709839E-1,-3.6775216E-1,-3.0369776E-1,-2.705282E-1,1.1448528E-1,-3.754362E-1,-4.2899325E-1,-2.90749E-1,-3.7210047E-1,-4.342155E-1,-3.596121E-1,-3.3916023E-1,-2.6185796E-1,-4.175706E-1,4.2366434E-2,-1.1397353E-1,4.1149008E-1,-3.7880114E-1,5.5103865E-2,1.0806358E-2,-4.3358588E-1,-2.99234E-1,4.6649553E-2,-3.3393505E-1,-3.7409443E-1,-4.6581026E-2,-3.110641E-2,-3.199278E-2,-3.7239905E-2,4.5456205E-2,-3.423288E-2,-2.7933944E-2,-6.849224E-3,-9.978305E-4,-5.3428907E-2,-5.8048632E-2,3.8567062E-2,3.342211E-2,-4.3102212E-2,6.452358E-2,-7.0017145E-4,-3.4569737E-2,-4.105123E-2,7.889609E-2,-3.0465988E-2,-2.7530784E-2,6.517082E-2,-5.2594405E-2,-4.1503437E-2,-1.2087332E-2,-3.3526253E-2,-3.0367691E-2,-4.312776E-2,-3.6929213E-2,-3.937507E-2],"categories":[],"categories_nodes":[],"categories_segments":[],"categories_sizes":[],"default_left":[0,0,0,0,0,0,0,0,0,0,0,0,0,0,0,0,0,0,0,0,0,0,0,0,0,0,0,0,0,0,0,0,0,0,0,0,0,0,0,0,0,0,0,0,0,0,0,0,0,0,0,0,0,0,0,0,0,0,0,0,0],"id":7,"left_children":[1,3,5,7,9,11,13,15,17,19,21,23,25,27,29,31,33,35,37,39,41,43,45,47,49,51,53,55,-1,57,59,-1,-1,-1,-1,-1,-1,-1,-1,-1,-1,-1,-1,-1,-1,-1,-1,-1,-1,-1,-1,-1,-1,-1,-1,-1,-1,-1,-1,-1,-1],"loss_changes":[2.7070312E0,4.853943E0,8.8623047E-1,3.5968018E0,2.6596782E0,9.8605347E-1,1.4760742E0,1.5542297E0,1.7966232E0,1.7033129E0,2.4446535E0,1.4749756E0,1.3405457E0,1.7284355E0,1.2021484E0,1.1784973E0,1.3130188E0,1.876854E0,1.9662437E0,1.1847782E0,2.9225492E0,3.0935583E0,1.5286324E0,9.0367126E-1,2.5258474E0,1.6116754E0,9.032364E-1,1.5348396E0,0E0,2.4465332E0,1.4177246E0,0E0,0E0,0E0,0E0,0E0,0E0,0E0,0E0,0E0,0E0,0E0,0E0,0E0,0E0,0E0,0E0,0E0,0E0,0E0,0E0,0E0,0E0,0E0,0E0,0E0,0E0,0E0,0E0,0E0,0E0],"parents":[2147483647,0,0,1,1,2,2,3,3,4,4,5,5,6,6,7,7,8,8,9,9,10,10,11,11,12,12,13,13,14,14,15,15,16,16,17,17,18,18,19,19,20,20,21,21,22,22,23,23,24,24,25,25,26,26,27,27,29,29,30,30],"right_children":[2,4,6,8,10,12,14,16,18,20,22,24,26,28,30,32,34,36,38,40,42,44,46,48,50,52,54,56,-1,58,60,-1,-1,-1,-1,-1,-1,-1,-1,-1,-1,-1,-1,-1,-1,-1,-1,-1,-1,-1,-1,-1,-1,-1,-1,-1,-1,-1,-1,-1,-1],"split_conditions":[1.9E1,7.21E2,5.2E1,3.5E1,3.2E1,4.54E2,5.8E1,2E0,1E1,2.5E1,9E0,4.51E2,2E1,1E2,2.1E1,5E0,6E0,2.4E1,4.61E2,1.2E1,1.2E1,3.6E1,1.5E1,1E0,2.2E1,4E0,5.01E2,1.25E2,4.6649553E-2,5.74E2,4.14E2,-4.6581026E-2,-3.110641E-2,-3.199278E-2,-3.7239905E-2,4.5456205E-2,-3.423288E-2,-2.7933944E-2,-6.849224E-3,-9.978305E-4,-5.3428907E-2,-5.8048632E-2,3.8567062E-2,3.342211E-2,-4.3102212E-2,6.452358E-2,-7.0017145E-4,-3.4569737E-2,-4.105123E-2,7.889609E-2,-3.0465988E-2,-2.7530784E-2,6.517082E-2,-5.2594405E-2,-4.1503437E-2,-1.2087332E-2,-3.3526253E-2,-3.0367691E-2,-4.312776E-2,-3.6929213E-2,-3.937507E-2],"split_indices":[8,2,3,0,0,2,3,8,8,1,8,2,8,8,0,10,8,2,3,5,5,0,8,11,3,10,2,2,0,2,3,0,0,0,0,0,0,0,0,0,0,0,0,0,0,0,0,0,0,0,0,0,0,0,0,0,0,0,0,0,0],"split_type":[0,0,0,0,0,0,0,0,0,0,0,0,0,0,0,0,0,0,0,0,0,0,0,0,0,0,0,0,0,0,0,0,0,0,0,0,0,0,0,0,0,0,0,0,0,0,0,0,0,0,0,0,0,0,0,0,0,0,0,0,0],"sum_hessian":[2.38454E4,4.500079E3,1.9345322E4,4.430105E3,6.997427E1,1.6630559E3,1.7682266E4,3.1603748E3,1.2697303E3,3.5636974E1,3.43373E1,1.00268665E3,6.603692E2,2.4628253E2,1.7435982E4,3.3912125E2,2.8212534E3,6.8339484E2,5.863355E2,2.4016205E1,1.16207695E1,1.97566E1,1.4580699E1,9.9503E2,7.6566353E0,6.810691E0,6.5355853E2,2.4415163E2,2.1309013E0,8.74088E2,1.6561895E4,2.67668E2,7.1453255E1,6.938653E2,2.1273882E3,2.1508603E0,6.8124396E2,5.373143E2,4.902126E1,5.5879664E0,1.8428238E1,3.8837132E0,7.737056E0,8.162933E0,1.1593666E1,9.007699E0,5.573E0,4.9264835E2,5.0238168E2,2.1263154E0,5.53032E0,5.103017E0,1.7076741E0,1.0474396E2,5.488145E2,4.1762012E1,2.0238962E2,6.6995703E2,2.0413095E2,1.3325939E4,3.2359556E3],"tree_param":{"num_deleted":"0","num_feature":"12","num_nodes":"61","size_leaf_vector":"1"}},{"base_weights":[1.6273582E-1,1.4066958E-1,1.7130244E-1,1.3539211E-1,2.8954223E-1,1.7347763E-1,5.2760232E-2,1.9867466E-1,1.2822121E-1,-4.0811038E-1,3.208682E-1,1.8920475E-1,1.6221376E-1,7.511089E-3,2.3929366E-1,1.6770789E-1,4.1861108E-1,-2.8064756E-3,1.3479538E-1,2.6569822E-1,-6.6221625E-2,3.0049202E-1,1.0433405E-1,2.0461796E-1,1.6861773E-1,1.4900668E-1,1.901142E-1,5.160918E-2,-2.351348E-1,1.7722653E-1,6.9699144E-1,1.8164309E-2,-1.546401E-2,5.90928E-2,1.8544612E-2,2.0503247E-2,-7.999391E-3,1.24205835E-2,1.7894153E-2,-6.916617E-4,4.2542174E-2,1.0034122E-1,2.8169883E-2,9.815757E-3,2.0995947E-2,3.0337734E-2,1.6460298E-2,7.2975173E-3,1.5574448E-2,2.3342216E-2,1.6922623E-2,1.3417696E-3,4.8879992E-2,-5.1185605E-3,-4.8730757E-2,3.039824E-2,-9.716574E-3,-1.3810088E-2,9.951373E-2],"categories":[],"categories_nodes":[],"categories_segments":[],"categories_sizes":[],"default_left":[0,0,0,0,0,0,0,0,0,0,0,0,0,0,0,0,0,0,0,0,0,0,0,0,0,0,0,0,0,0,0,0,0,0,0,0,0,0,0,0,0,0,0,0,0,0,0,0,0,0,0,0,0,0,0,0,0,0,0],"id":8,"left_children":[1,3,5,7,9,11,13,15,17,19,21,23,25,27,29,31,33,35,37,39,-1,41,-1,43,45,47,49,51,53,55,57,-1,-1,-1,-1,-1,-1,-1,-1,-1,-1,-1,-1,-1,-1,-1,-1,-1,-1,-1,-1,-1,-1,-1,-1,-1,-1,-1,-1],"loss_changes":[4.76593E0,5.5326996E0,4.69635E0,3.0834656E0,5.4180202E0,3.1436768E0,2.7857442E0,4.666588E0,5.303589E0,2.031283E0,3.1030407E0,2.3364868E0,3.8216858E0,2.8671386E0,1.7071283E0,2.7741337E0,3.3123932E0,4.750844E0,2.7183685E0,1.6322732E-1,0E0,2.7176552E0,0E0,2.406601E0,1.6839523E0,3.6238556E0,2.9938736E0,3.7770345E0,1.8868294E0,2.0498607E0,1.9684815E0,0E0,0E0,0E0,0E0,0E0,0E0,0E0,0E0,0E0,0E0,0E0,0E0,0E0,0E0,0E0,0E0,0E0,0E0,0E0,0E0,0E0,0E0,0E0,0E0,0E0,0E0,0E0,0E0],"parents":[2147483647,0,0,1,1,2,2,3,3,4,4,5,5,6,6,7,7,8,8,9,9,10,10,11,11,12,12,13,13,14,14,15,15,16,16,17,17,18,18,19,19,21,21,23,23,24,24,25,25,26,26,27,27,28,28,29,29,30,30],"right_children":[2,4,6,8,10,12,14,16,18,20,22,24,26,28,30,32,34,36,38,40,-1,42,-1,44,46,48,50,52,54,56,58,-1,-1,-1,-1,-1,-1,-1,-1,-1,-1,-1,-1,-1,-1,-1,-1,-1,-1,-1,-1,-1,-1,-1,-1,-1,-1,-1,-1],"split_conditions":[3E1,7.07E2,7.18E2,6E1,2E1,4.2E1,4.16E2,5.4E1,8.1E1,3.3E1,9.9E1,1.4E1,4.96E2,3.51E2,3.9E1,2.9E1,1.4E1,1.2E1,3.7E1,2.2E1,-6.6221625E-2,3.3E1,1.0433405E-1,2E0,2.4E1,5E1,5.66E2,3.28E2,4E0,3.3E1,3E0,1.8164309E-2,-1.546401E-2,5.90928E-2,1.8544612E-2,2.0503247E-2,-7.999391E-3,1.24205835E-2,1.7894153E-2,-6.916617E-4,4.2542174E-2,1.0034122E-1,2.8169883E-2,9.815757E-3,2.0995947E-2,3.0337734E-2,1.6460298E-2,7.2975173E-3,1.5574448E-2,2.3342216E-2,1.6922623E-2,1.3417696E-3,4.8879992E-2,-5.1185605E-3,-4.8730757E-2,3.039824E-2,-9.716574E-3,-1.3810088E-2,9.951373E-2],"split_indices":[6,2,2,3,3,8,3,3,3,8,8,5,2,3,0,6,5,5,0,6,0,3,0,8,3,3,2,3,10,0,10,0,0,0,0,0,0,0,0,0,0,0,0,0,0,0,0,0,0,0,0,0,0,0,0,0,0,0,0],"split_type":[0,0,0,0,0,0,0,0,0,0,0,0,0,0,0,0,0,0,0,0,0,0,0,0,0,0,0,0,0,0,0,0,0,0,0,0,0,0,0,0,0,0,0,0,0,0,0,0,0,0,0,0,0,0,0,0,0,0,0],"sum_hessian":[2.5338596E4,7.090922E3,1.8247674E4,6.850002E3,2.409199E2,1.7918414E4,3.2925876E2,6.9449036E2,6.1555117E3,9.836041E0,2.3108388E2,7.4711167E3,1.0447298E4,2.6581726E2,6.3441494E1,6.103205E2,8.416985E1,2.9411777E2,5.861394E3,2.6810699E0,7.154972E0,2.2612238E2,4.961496E0,4.2673076E3,3.203809E3,7.0950796E3,3.3522183E3,2.2560371E2,4.0213566E1,5.708726E1,6.3542337E0,5.854479E2,2.4872597E1,4.7518024E1,3.6651825E1,7.920091E1,2.1491684E2,4.730484E3,1.1309102E3,1.34394E0,1.3371298E0,4.523879E0,2.215985E2,2.0480264E2,4.0625051E3,9.052942E1,3.1132798E3,5.7853546E2,6.516544E3,1.087429E3,2.2647893E3,2.0842694E2,1.7176773E1,2.3947714E1,1.626585E1,3.8974907E1,1.8112352E1,1.8129759E0,4.541258E0],"tree_param":{"num_deleted":"0","num_feature":"12","num_nodes":"59","size_leaf_vector":"1"}},{"base_weights":[1.5896477E-1,1.6436996E-1,1.3494626E-1,1.3473909E-1,1.687138E-1,1.1266641E-1,1.5502322E-1,5.961322E-2,1.5509924E-1,1.5710437E-1,1.8437348E-1,1.1903791E-1,-1.4097786E-1,-2.100909E-1,1.583609E-1,1.23818345E-1,-5.8488864E-2,2.5652176E-1,1.4041167E-1,1.399557E-1,1.7415802E-1,1.7167845E-1,2.2553182E-1,1.5956135E-1,8.3950914E-2,2.9792951E-2,-5.0106484E-1,4.9451154E-2,-4.5232415E-1,1.5092787E-1,2.813239E-1,2.070189E-3,2.091606E-2,-2.2327242E-2,-1.0943118E-3,3.0315796E-2,-1.0390182E-2,1.0632104E-2,1.9021312E-2,1.8607354E-2,1.1995105E-2,-1.5677428E-2,1.761609E-2,1.2996304E-2,1.8282397E-2,6.199735E-2,2.1739086E-2,2.6971156E-2,1.2373869E-2,9.51331E-3,-4.0745223E-3,-2.6145002E-2,1.770718E-2,2.1764707E-2,-5.9601046E-2,-5.358975E-2,2.4333319E-2,-5.7531573E-2,-2.9122282E-3,1.6545882E-2,2.7671137E-3,2.3920044E-2,7.461174E-2],"categories":[],"categories_nodes":[],"categories_segments":[],"categories_sizes":[],"default_left":[0,0,0,0,0,0,0,0,0,0,0,0,0,0,0,0,0,0,0,0,0,0,0,0,0,0,0,0,0,0,0,0,0,0,0,0,0,0,0,0,0,0,0,0,0,0,0,0,0,0,0,0,0,0,0,0,0,0,0,0,0,0,0],"id":9,"left_children":[1,3,5,7,9,11,13,15,17,19,21,23,25,27,29,31,33,35,37,39,41,43,45,47,49,51,53,55,57,59,61,-1,-1,-1,-1,-1,-1,-1,-1,-1,-1,-1,-1,-1,-1,-1,-1,-1,-1,-1,-1,-1,-1,-1,-1,-1,-1,-1,-1,-1,-1,-1,-1],"loss_changes":[3.300537E0,2.6657715E0,2.08815E0,4.0832405E0,3.2821655E0,3.6285496E0,3.047409E0,4.345547E0,3.0988693E0,3.036377E0,4.0097656E0,3.0871658E0,3.4106493E0,1.4580145E0,2.1982193E0,3.2601533E0,1.5815219E0,4.4857655E0,3.104416E0,4.7967453E0,3.5030212E0,2.73143E0,5.7201843E0,3.955206E0,1.6364584E0,1.6934863E0,1.3457551E0,1.4837787E0,6.031661E-1,4.139786E0,2.5349178E0,0E0,0E0,0E0,0E0,0E0,0E0,0E0,0E0,0E0,0E0,0E0,0E0,0E0,0E0,0E0,0E0,0E0,0E0,0E0,0E0,0E0,0E0,0E0,0E0,0E0,0E0,0E0,0E0,0E0,0E0,0E0,0E0],"parents":[2147483647,0,0,1,1,2,2,3,3,4,4,5,5,6,6,7,7,8,8,9,9,10,10,11,11,12,12,13,13,14,14,15,15,16,16,17,17,18,18,19,19,20,20,21,21,22,22,23,23,24,24,25,25,26,26,27,27,28,28,29,29,30,30],"right_children":[2,4,6,8,10,12,14,16,18,20,22,24,26,28,30,32,34,36,38,40,42,44,46,48,50,52,54,56,58,60,62,-1,-1,-1,-1,-1,-1,-1,-1,-1,-1,-1,-1,-1,-1,-1,-1,-1,-1,-1,-1,-1,-1,-1,-1,-1,-1,-1,-1,-1,-1,-1,-1],"split_conditions":[2.7E1,1.3E1,2.42E2,1.2E2,3.2E1,2.36E2,1E0,3.4E1,1.9E1,1E0,5.64E2,3E1,5.31E2,3.85E2,7.7E1,3.32E2,3E0,4.59E2,4E0,2.37E2,1.3E1,3.2E1,2E1,1.88E2,4E1,4.5E1,1.7E1,2.6E1,5.8E1,7E1,9.4E1,2.070189E-3,2.091606E-2,-2.2327242E-2,-1.0943118E-3,3.0315796E-2,-1.0390182E-2,1.0632104E-2,1.9021312E-2,1.8607354E-2,1.1995105E-2,-1.5677428E-2,1.761609E-2,1.2996304E-2,1.8282397E-2,6.199735E-2,2.1739086E-2,2.6971156E-2,1.2373869E-2,9.51331E-3,-4.0745223E-3,-2.6145002E-2,1.770718E-2,2.1764707E-2,-5.9601046E-2,-5.358975E-2,2.4333319E-2,-5.7531573E-2,-2.9122282E-3,1.6545882E-2,2.7671137E-3,2.3920044E-2,7.461174E-2],"split_indices":[1,8,3,3,0,3,8,0,6,4,2,0,2,3,6,2,8,3,10,2,3,8,3,2,0,8,6,0,6,6,8,0,0,0,0,0,0,0,0,0,0,0,0,0,0,0,0,0,0,0,0,0,0,0,0,0,0,0,0,0,0,0,0],"split_type":[0,0,0,0,0,0,0,0,0,0,0,0,0,0,0,0,0,0,0,0,0,0,0,0,0,0,0,0,0,0,0,0,0,0,0,0,0,0,0,0,0,0,0,0,0,0,0,0,0,0,0,0,0,0,0,0,0,0,0,0,0,0,0],"sum_hessian":[2.5592984E4,2.0886734E4,4.70625E3,2.6745715E3,1.8212162E4,2.2338784E3,2.4723713E3,5.7112756E2,2.103444E3,1.0464935E4,7.7472285E3,2.1796567E3,5.4221848E1,2.1835266E1,2.4505361E3,3.6995596E2,2.0117159E2,2.639964E2,1.8394476E3,5.222518E3,5.242416E3,5.924902E3,1.8223264E3,1.0098225E3,1.1698341E3,3.7401497E1,1.682035E1,1.0925227E1,1.0910039E1,2.3129473E3,1.3758873E2,1.6809476E2,2.018612E2,4.4219646E1,1.5695193E2,2.3389143E2,3.0104973E1,1.0938251E3,7.456226E2,1.5775049E3,3.6450134E3,3.1072416E1,5.2113438E3,1.2519113E3,4.6729907E3,3.5331066E1,1.7869954E3,2.4621452E2,7.63608E2,1.0737795E3,9.605463E1,1.2301048E1,2.5100449E1,1.8119625E0,1.50083885E1,2.2794144E0,8.645813E0,8.174824E0,2.7352154E0,2.06872E3,2.4422726E2,1.27544235E2,1.004449E1],"tree_param":{"num_deleted":"0","num_feature":"12","num_nodes":"63","size_leaf_vector":"1"}},{"base_weights":[-3.4865612E-1,-3.3353278E-1,-3.5216767E-1,-3.5293242E-1,-2.8478283E-1,-3.4977648E-1,-4.077413E-1,-3.5527182E-1,-9.707609E-2,-3.2143566E-1,-2.3070164E-1,-3.544117E-1,-3.353605E-1,-2.4193574E-1,-4.2473015E-1,-3.3544895E-1,-3.749148E-1,-3.746801E-1,3.8984787E-1,-3.081498E-1,-4.4104356E-1,-2.3836887E-1,2.1370612E-1,-3.4802225E-1,-3.7470397E-1,-3.0977857E-1,-3.5200676E-1,3.87059E-3,-3.7951323E-1,-4.052462E-1,-4.6463534E-1,-2.935714E-2,-3.695763E-2,-3.8414344E-2,-2.5320215E-2,-4.971351E-2,3.094632E-2,-4.067997E-2,5.314691E-2,-3.398248E-2,-2.5142312E-2,-6.46786E-2,-3.212094E-2,-2.5924897E-2,-1.2259393E-2,-4.6345763E-2,4.317303E-2,-3.3696216E-2,-3.555517E-2,-4.2883795E-2,-3.65362E-2,-2.4385534E-3,-3.1215964E-2,-4.057353E-2,-3.403574E-2,-1.777575E-2,4.3435927E-2,-5.5568665E-2,-2.6691303E-2,-4.251641E-2,-2.8154586E-2,-4.2628556E-2,-5.4867275E-2],"categories":[],"categories_nodes":[],"categories_segments":[],"categories_sizes":[],"default_left":[0,0,0,0,0,0,0,0,0,0,0,0,0,0,0,0,0,0,0,0,0,0,0,0,0,0,0,0,0,0,0,0,0,0,0,0,0,0,0,0,0,0,0,0,0,0,0,0,0,0,0,0,0,0,0,0,0,0,0,0,0,0,0],"id":10,"left_children":[1,3,5,7,9,11,13,15,17,19,21,23,25,27,29,31,33,35,37,39,41,43,45,47,49,51,53,55,57,59,61,-1,-1,-1,-1,-1,-1,-1,-1,-1,-1,-1,-1,-1,-1,-1,-1,-1,-1,-1,-1,-1,-1,-1,-1,-1,-1,-1,-1,-1,-1,-1,-1],"loss_changes":[1.1206055E0,4.0723877E0,2.3693848E0,1.8522339E0,2.4258957E0,1.0925293E0,2.0769043E0,1.0903625E0,4.192632E0,1.0546341E0,1.799015E0,1.6462402E0,1.7774048E0,2.512063E0,3.5640717E-1,2.1267242E0,1.6552734E0,1.7938809E0,1.4978774E0,1.1321106E0,1.5817366E0,1.188509E0,1.5625287E0,7.492676E-1,1.4960327E0,1.1846924E0,1.5370178E0,2.2376347E0,7.961035E-1,1.0593643E0,4.8482895E-1,0E0,0E0,0E0,0E0,0E0,0E0,0E0,0E0,0E0,0E0,0E0,0E0,0E0,0E0,0E0,0E0,0E0,0E0,0E0,0E0,0E0,0E0,0E0,0E0,0E0,0E0,0E0,0E0,0E0,0E0,0E0,0E0],"parents":[2147483647,0,0,1,1,2,2,3,3,4,4,5,5,6,6,7,7,8,8,9,9,10,10,11,11,12,12,13,13,14,14,15,15,16,16,17,17,18,18,19,19,20,20,21,21,22,22,23,23,24,24,25,25,26,26,27,27,28,28,29,29,30,30],"right_children":[2,4,6,8,10,12,14,16,18,20,22,24,26,28,30,32,34,36,38,40,42,44,46,48,50,52,54,56,58,60,62,-1,-1,-1,-1,-1,-1,-1,-1,-1,-1,-1,-1,-1,-1,-1,-1,-1,-1,-1,-1,-1,-1,-1,-1,-1,-1,-1,-1,-1,-1,-1,-1],"split_conditions":[1.9E1,3.5E1,7.8E1,7.24E2,1.1E1,8.1E1,1.1E1,1E0,2.9E1,2.9E1,7.21E2,3.6E1,3.7E1,2.46E2,2.5E1,3.46E2,6.76E2,2.8E1,1.7E1,2.2E1,1.2E1,2.8E1,3.6E1,3.8E1,1.1E1,2.7E1,1.3E1,3.7E1,5.3E1,2.3E1,5.18E2,-2.935714E-2,-3.695763E-2,-3.8414344E-2,-2.5320215E-2,-4.971351E-2,3.094632E-2,-4.067997E-2,5.314691E-2,-3.398248E-2,-2.5142312E-2,-6.46786E-2,-3.212094E-2,-2.5924897E-2,-1.2259393E-2,-4.6345763E-2,4.317303E-2,-3.3696216E-2,-3.555517E-2,-4.2883795E-2,-3.65362E-2,-2.4385534E-3,-3.1215964E-2,-4.057353E-2,-3.403574E-2,-1.777575E-2,4.3435927E-2,-5.5568665E-2,-2.6691303E-2,-4.251641E-2,-2.8154586E-2,-4.2628556E-2,-5.4867275E-2],"split_indices":[8,0,6,2,8,8,1,11,0,1,2,0,6,2,1,2,2,1,6,1,5,1,0,6,5,2,1,0,8,1,2,0,0,0,0,0,0,0,0,0,0,0,0,0,0,0,0,0,0,0,0,0,0,0,0,0,0,0,0,0,0,0,0],"split_type":[0,0,0,0,0,0,0,0,0,0,0,0,0,0,0,0,0,0,0,0,0,0,0,0,0,0,0,0,0,0,0,0,0,0,0,0,0,0,0,0,0,0,0,0,0,0,0,0,0,0,0,0,0,0,0,0,0,0,0,0,0,0,0],"sum_hessian":[2.331424E4,4.4114033E3,1.8902838E4,3.1511775E3,1.2602258E3,1.8130043E4,7.727949E2,3.122241E3,2.8936396E1,7.481996E2,5.120262E2,1.3701092E4,4.4289507E3,7.323967E1,6.9955524E2,1.5630033E3,1.5592378E3,1.8576258E1,1.0360138E1,6.766183E2,7.15813E1,5.0379794E2,8.228244E0,1.0433904E4,3.2671873E3,1.7536136E3,2.6753372E3,2.663085E1,4.660882E1,4.7754602E2,2.2200922E2,7.061233E2,8.5688E2,1.4473398E3,1.11897934E2,1.5987921E1,2.588336E0,1.2811224E0,9.079016E0,4.3097833E2,2.4563997E2,2.4728226E1,4.6853073E1,4.257706E2,7.802736E1,1.7298297E0,6.498414E0,4.244649E3,6.189255E3,4.742338E2,2.7929536E3,1.4602438E1,1.7390112E3,4.7067883E2,2.2046584E3,1.914179E1,7.4890594E0,1.6639595E1,2.9969229E1,4.0921783E2,6.832817E1,1.566128E2,6.539642E1],"tree_param":{"num_deleted":"0","num_feature":"12","num_nodes":"63","size_leaf_vector":"1"}},{"base_weights":[1.5432449E-1,1.3210133E-1,1.629502E-1,1.8868431E-1,1.2115017E-1,1.6972056E-1,1.3874483E-1,2.952157E-1,1.3530003E-1,1.0737208E-1,1.6423915E-1,1.7955698E-1,1.4490394E-1,7.272139E-3,1.4352405E-1,3.2463583E-1,-1.07384436E-1,5.2886333E-2,1.8967207E-1,1.2431456E-1,6.169243E-2,2.1683493E-1,1.06835514E-1,2.1653485E-1,1.7154951E-1,9.9451445E-2,1.5575092E-1,6.247259E-2,-5.5266297E-1,1.1327567E-1,1.6100694E-1,4.07162E-2,2.1377038E-2,3.643498E-2,-2.3136808E-2,-3.884827E-3,1.8652763E-2,3.4786493E-2,1.2794587E-2,2.2854256E-2,1.1277576E-2,-1.9466043E-4,1.2962215E-2,2.4604924E-2,3.2999E-3,7.293428E-3,2.8179055E-2,3.0463059E-2,1.708731E-2,9.468711E-3,1.7943803E-2,-3.5505083E-3,1.2500505E-2,1.3578288E-2,1.9539451E-2,2.5796364E-3,9.579792E-2,-6.8463944E-2,-1.7244427E-2,2.0411482E-2,6.1877877E-3,1.7338006E-2,4.926681E-3],"categories":[],"categories_nodes":[],"categories_segments":[],"categories_sizes":[],"default_left":[0,0,0,0,0,0,0,0,0,0,0,0,0,0,0,0,0,0,0,0,0,0,0,0,0,0,0,0,0,0,0,0,0,0,0,0,0,0,0,0,0,0,0,0,0,0,0,0,0,0,0,0,0,0,0,0,0,0,0,0,0,0,0],"id":11,"left_children":[1,3,5,7,9,11,13,15,17,19,21,23,25,27,29,31,33,35,37,39,41,43,45,47,49,51,53,55,57,59,61,-1,-1,-1,-1,-1,-1,-1,-1,-1,-1,-1,-1,-1,-1,-1,-1,-1,-1,-1,-1,-1,-1,-1,-1,-1,-1,-1,-1,-1,-1,-1,-1],"loss_changes":[4.8551025E0,4.388214E0,2.979126E0,6.514736E0,3.5249481E0,3.4679565E0,2.5187225E0,4.582073E0,3.4387455E0,3.4937744E0,4.3361244E0,2.9967346E0,1.9901657E0,4.4148297E0,2.0280762E0,3.18853E0,1.6573251E0,3.7748268E0,4.479698E0,3.9421043E0,5.3003526E0,4.0333595E0,4.085898E0,7.2692337E0,5.092697E0,2.7169447E0,2.5719376E0,4.241657E0,5.251887E-1,6.620466E0,3.3785172E0,0E0,0E0,0E0,0E0,0E0,0E0,0E0,0E0,0E0,0E0,0E0,0E0,0E0,0E0,0E0,0E0,0E0,0E0,0E0,0E0,0E0,0E0,0E0,0E0,0E0,0E0,0E0,0E0,0E0,0E0,0E0,0E0],"parents":[2147483647,0,0,1,1,2,2,3,3,4,4,5,5,6,6,7,7,8,8,9,9,10,10,11,11,12,12,13,13,14,14,15,15,16,16,17,17,18,18,19,19,20,20,21,21,22,22,23,23,24,24,25,25,26,26,27,27,28,28,29,29,30,30],"right_children":[2,4,6,8,10,12,14,16,18,20,22,24,26,28,30,32,34,36,38,40,42,44,46,48,50,52,54,56,58,60,62,-1,-1,-1,-1,-1,-1,-1,-1,-1,-1,-1,-1,-1,-1,-1,-1,-1,-1,-1,-1,-1,-1,-1,-1,-1,-1,-1,-1,-1,-1,-1,-1],"split_conditions":[3E1,9.8E1,7.9E1,1.73E2,3.6E1,3.5E1,2.7E1,9.5E1,2.8E1,7.4E1,5.1E1,1.4E1,1.5E1,2.86E2,8.7E1,3.2E1,1.3E1,8.2E1,1.5E1,5.8E1,2.02E2,4.4E2,9.2E1,1.45E2,2E1,9.9E1,3.9E1,2.83E2,1E0,1.98E2,7.6E1,4.07162E-2,2.1377038E-2,3.643498E-2,-2.3136808E-2,-3.884827E-3,1.8652763E-2,3.4786493E-2,1.2794587E-2,2.2854256E-2,1.1277576E-2,-1.9466043E-4,1.2962215E-2,2.4604924E-2,3.2999E-3,7.293428E-3,2.8179055E-2,3.0463059E-2,1.708731E-2,9.468711E-3,1.7943803E-2,-3.5505083E-3,1.2500505E-2,1.3578288E-2,1.9539451E-2,2.5796364E-3,9.579792E-2,-6.8463944E-2,-1.7244427E-2,2.0411482E-2,6.1877877E-3,1.7338006E-2,4.926681E-3],"split_indices":[6,7,8,3,0,0,3,8,0,8,8,8,8,7,8,0,1,7,1,3,7,3,8,7,8,7,0,7,11,3,6,0,0,0,0,0,0,0,0,0,0,0,0,0,0,0,0,0,0,0,0,0,0,0,0,0,0,0,0,0,0,0,0],"split_type":[0,0,0,0,0,0,0,0,0,0,0,0,0,0,0,0,0,0,0,0,0,0,0,0,0,0,0,0,0,0,0,0,0,0,0,0,0,0,0,0,0,0,0,0,0,0,0,0,0,0,0,0,0,0,0,0,0,0,0,0,0,0,0],"sum_hessian":[2.5439219E4,7.117676E3,1.8321543E4,1.1515519E3,5.966124E3,1.4312313E4,4.0092297E3,3.8290778E2,7.686441E2,4.5232617E3,1.4428622E3,1.024523E4,4.0670837E3,1.4071762E2,3.8685122E3,3.5701263E2,2.5895164E1,3.063185E2,4.623256E2,3.298233E3,1.225029E3,7.5151404E2,6.9134814E2,1.819035E3,8.426195E3,7.8554675E2,3.2815369E3,1.2889874E2,1.181888E1,1.4196877E3,2.4488245E3,2.0313219E2,1.5388043E2,4.9859347E0,2.090923E1,1.8205849E2,1.2426002E2,1.28463E2,3.338626E2,3.268698E2,2.971363E3,6.3299115E2,5.920379E2,6.481714E2,1.0334265E2,5.803164E2,1.110317E2,6.190409E2,1.1999941E3,7.855104E2,7.6406846E3,1.24999E2,6.605477E2,2.1852668E3,1.0962701E3,1.2481562E2,4.0831223E0,8.179184E0,3.6396961E0,5.1193524E2,9.077525E2,2.2041995E3,2.4462505E2],"tree_param":{"num_deleted":"0","num_feature":"12","num_nodes":"63","size_leaf_vector":"1"}},{"base_weights":[1.5400395E-1,1.5879604E-1,1.3272808E-1,1.5229501E-1,1.7290097E-1,1.4016527E-1,2.107918E-2,1.6069575E-1,1.0772262E-1,2.3246188E-1,1.6645786E-1,2.7874973E-2,1.4527352E-1,-2.2655097E-1,7.2515406E-2,1.3926508E-1,1.7367806E-1,1.494876E-1,8.596E-2,-2.1189146E-1,2.3923174E-1,1.1571093E-1,1.7264017E-1,-1.9429578E-1,1.0302455E-1,1.755331E-1,1.2222638E-1,-1.3495393E-1,-5.895013E-1,1.8953368E-1,-2.2607762E-2,7.3839687E-3,1.5450581E-2,1.7156066E-2,3.2148346E-2,1.3658141E-2,5.3581387E-2,5.9251175E-3,1.6760191E-2,-6.1065853E-2,1.0610538E-2,3.4512293E-2,1.9770965E-2,-3.540897E-2,1.2715627E-2,3.1722832E-2,1.7015075E-2,-4.3139618E-2,1.2024328E-2,2.6397366E-2,2.620625E-3,1.2768715E-2,2.1248192E-2,2.095526E-2,1.1016507E-2,-3.42474E-2,2.4371756E-2,-6.757002E-2,-2.52438E-3,3.126271E-2,-4.176563E-3,-1.7216656E-2,1.4579673E-2],"categories":[],"categories_nodes":[],"categories_segments":[],"categories_sizes":[],"default_left":[0,0,0,0,0,0,0,0,0,0,0,0,0,0,0,0,0,0,0,0,0,0,0,0,0,0,0,0,0,0,0,0,0,0,0,0,0,0,0,0,0,0,0,0,0,0,0,0,0,0,0,0,0,0,0,0,0,0,0,0,0,0,0],"id":12,"left_children":[1,3,5,7,9,11,13,15,17,19,21,23,25,27,29,31,33,35,37,39,41,43,45,47,49,51,53,55,57,59,61,-1,-1,-1,-1,-1,-1,-1,-1,-1,-1,-1,-1,-1,-1,-1,-1,-1,-1,-1,-1,-1,-1,-1,-1,-1,-1,-1,-1,-1,-1,-1,-1],"loss_changes":[2.604187E0,1.9002686E0,3.9325562E0,5.371002E0,2.5022583E0,2.544716E0,3.801567E0,3.3439636E0,2.0641174E0,1.9874573E0,1.8556671E0,3.2687168E0,2.94236E0,1.6276851E0,2.7516737E0,4.547554E0,2.3030243E0,3.8231468E0,3.2710495E0,1.3572059E0,2.7221375E0,3.5522966E0,1.8634796E0,3.7455087E0,1.798839E0,3.2170753E0,2.5212975E0,3.4076123E0,4.7182631E-1,3.1671035E0,3.4766543E0,0E0,0E0,0E0,0E0,0E0,0E0,0E0,0E0,0E0,0E0,0E0,0E0,0E0,0E0,0E0,0E0,0E0,0E0,0E0,0E0,0E0,0E0,0E0,0E0,0E0,0E0,0E0,0E0,0E0,0E0,0E0,0E0],"parents":[2147483647,0,0,1,1,2,2,3,3,4,4,5,5,6,6,7,7,8,8,9,9,10,10,11,11,12,12,13,13,14,14,15,15,16,16,17,17,18,18,19,19,20,20,21,21,22,22,23,23,24,24,25,25,26,26,27,27,28,28,29,29,30,30],"right_children":[2,4,6,8,10,12,14,16,18,20,22,24,26,28,30,32,34,36,38,40,42,44,46,48,50,52,54,56,58,60,62,-1,-1,-1,-1,-1,-1,-1,-1,-1,-1,-1,-1,-1,-1,-1,-1,-1,-1,-1,-1,-1,-1,-1,-1,-1,-1,-1,-1,-1,-1,-1,-1],"split_conditions":[2.7E1,6.9E1,2.87E2,5.8E1,7.2E1,7E1,1.9E1,1.5E2,2.65E2,1.1E1,9.9E1,2.01E2,3.21E2,6.29E2,2.9E1,1.1E1,8E1,2.57E2,6.1E2,1E0,3.1E1,1.1E1,1.09E2,4.7E1,6.3E1,1.3E1,1.9E1,3.37E2,1.6E1,4.96E2,4.9E1,7.3839687E-3,1.5450581E-2,1.7156066E-2,3.2148346E-2,1.3658141E-2,5.3581387E-2,5.9251175E-3,1.6760191E-2,-6.1065853E-2,1.0610538E-2,3.4512293E-2,1.9770965E-2,-3.540897E-2,1.2715627E-2,3.1722832E-2,1.7015075E-2,-4.3139618E-2,1.2024328E-2,2.6397366E-2,2.620625E-3,1.2768715E-2,2.1248192E-2,2.095526E-2,1.1016507E-2,-3.42474E-2,2.4371756E-2,-6.757002E-2,-2.52438E-3,3.126271E-2,-4.176563E-3,-1.7216656E-2,1.4579673E-2],"split_indices":[1,8,7,8,8,7,8,7,2,6,2,2,2,2,1,8,6,2,2,11,6,6,2,6,7,5,6,2,5,2,6,0,0,0,0,0,0,0,0,0,0,0,0,0,0,0,0,0,0,0,0,0,0,0,0,0,0,0,0,0,0,0,0],"split_type":[0,0,0,0,0,0,0,0,0,0,0,0,0,0,0,0,0,0,0,0,0,0,0,0,0,0,0,0,0,0,0,0,0,0,0,0,0,0,0,0,0,0,0,0,0,0,0,0,0,0,0,0,0,0,0,0,0,0,0,0,0,0,0],"sum_hessian":[2.574804E4,2.1009473E4,4.7385654E3,1.4389202E4,6.6202705E3,4.4423926E3,2.961729E2,1.2105099E4,2.2841035E3,6.4282605E2,5.977445E3,1.9357907E2,4.2488135E3,5.0353043E1,2.4581987E2,4.571075E3,7.534024E3,7.804537E2,1.5036499E3,9.191986E0,6.3363403E2,6.512698E2,5.326175E3,4.852759E1,1.4505148E2,1.8341127E3,2.4147007E3,4.1301655E1,9.051388E0,1.09779366E2,1.360405E2,8.6474524E2,3.7063298E3,7.429749E3,1.0427475E2,7.565333E2,2.3920345E1,1.1342954E3,3.6935452E2,3.669773E0,5.522213E0,1.7641702E2,4.57217E2,1.4776973E1,6.364928E2,8.801E1,5.238165E3,2.745809E1,2.1069502E1,4.6076344E1,9.8975136E1,8.01145E2,1.0329677E3,2.9105234E2,2.1236484E3,2.6742039E1,1.4559615E1,7.6805615E0,1.3708264E0,7.141953E1,3.8359833E1,7.2039986E1,6.400052E1],"tree_param":{"num_deleted":"0","num_feature":"12","num_nodes":"63","size_leaf_vector":"1"}},{"base_weights":[-3.2988432E-1,-3.1794226E-1,-3.3708593E-1,-3.4690496E-1,-3.1114972E-1,-3.3834374E-1,-2.0301056E-1,-3.5438737E-1,-1.5911521E-1,-2.381538E-1,-3.1649753E-1,-3.5916752E-1,-3.3071458E-1,4.1133946E-1,-2.2985606E-1,-3.7937933E-1,-3.1466582E-1,-3.7827414E-1,-2.7951092E-2,-2.7404442E-1,-1.8533368E-2,-3.3719248E-1,-3.0010685E-1,-3.5449433E-1,-4.733778E-1,-3.4676874E-1,-3.211555E-1,9.273771E-2,-2.210819E-1,-3.7236866E-1,-1.285122E-1,-3.1181553E-3,-3.8434632E-2,-3.6247633E-2,-2.1435171E-2,-1.5282395E-2,-6.364236E-2,8.639791E-3,-3.1106964E-2,-2.1587726E-2,-3.570673E-2,1.6780185E-2,-2.110663E-2,-2.2760047E-2,-3.4282442E-2,-2.8869946E-2,-3.535102E-2,-3.4129012E-2,-3.9506923E-2,-5.3301513E-2,-2.9968632E-2,-3.2465532E-2,-3.6546476E-2,-2.9855693E-2,-3.35359E-2,5.089713E-3,-3.945708E-2,-5.011337E-2,-4.053293E-3,7.730451E-2,-1.9080643E-2],"categories":[],"categories_nodes":[],"categories_segments":[],"categories_sizes":[],"default_left":[0,0,0,0,0,0,0,0,0,0,0,0,0,0,0,0,0,0,0,0,0,0,0,0,0,0,0,0,0,0,0,0,0,0,0,0,0,0,0,0,0,0,0,0,0,0,0,0,0,0,0,0,0,0,0,0,0,0,0,0,0],"id":13,"left_children":[1,3,5,7,9,11,13,15,17,19,21,23,25,27,29,31,33,35,37,39,41,43,45,47,49,51,53,-1,55,57,59,-1,-1,-1,-1,-1,-1,-1,-1,-1,-1,-1,-1,-1,-1,-1,-1,-1,-1,-1,-1,-1,-1,-1,-1,-1,-1,-1,-1,-1,-1],"loss_changes":[1.8525391E0,1.5819702E0,2.3258057E0,2.2243958E0,2.6447144E0,2.1156006E0,2.3121777E0,1.4294281E0,1.8295039E0,3.7758904E0,2.0999146E0,1.8388672E0,1.470459E0,2.159277E0,1.8221164E0,1.635849E0,2.8401985E0,1.2929537E0,1.3582747E0,1.913641E0,2.491139E0,1.6871643E0,2.1095276E0,1.8023987E0,1.3402786E0,1.4664307E0,1.9777832E0,0E0,1.8514405E-1,2.2563248E0,4.482823E0,0E0,0E0,0E0,0E0,0E0,0E0,0E0,0E0,0E0,0E0,0E0,0E0,0E0,0E0,0E0,0E0,0E0,0E0,0E0,0E0,0E0,0E0,0E0,0E0,0E0,0E0,0E0,0E0,0E0,0E0],"parents":[2147483647,0,0,1,1,2,2,3,3,4,4,5,5,6,6,7,7,8,8,9,9,10,10,11,11,12,12,13,13,14,14,15,15,16,16,17,17,18,18,19,19,20,20,21,21,22,22,23,23,24,24,25,25,26,26,28,28,29,29,30,30],"right_children":[2,4,6,8,10,12,14,16,18,20,22,24,26,28,30,32,34,36,38,40,42,44,46,48,50,52,54,-1,56,58,60,-1,-1,-1,-1,-1,-1,-1,-1,-1,-1,-1,-1,-1,-1,-1,-1,-1,-1,-1,-1,-1,-1,-1,-1,-1,-1,-1,-1,-1,-1],"split_conditions":[3.7E1,1.02E2,7.24E2,3.6E1,1.29E2,1.5E1,3.9E1,3.3E1,2.8E1,1.25E2,3.29E2,6.96E2,1.94E2,1E0,2.27E2,3E1,2.4E1,1E0,7.5E1,4.45E2,2.1E1,2.1E1,4.34E2,3.81E2,7E1,9.5E1,3.13E2,9.273771E-2,2.8E1,2.5E1,2.46E2,-3.1181553E-3,-3.8434632E-2,-3.6247633E-2,-2.1435171E-2,-1.5282395E-2,-6.364236E-2,8.639791E-3,-3.1106964E-2,-2.1587726E-2,-3.570673E-2,1.6780185E-2,-2.110663E-2,-2.2760047E-2,-3.4282442E-2,-2.8869946E-2,-3.535102E-2,-3.4129012E-2,-3.9506923E-2,-5.3301513E-2,-2.9968632E-2,-3.2465532E-2,-3.6546476E-2,-2.9855693E-2,-3.35359E-2,5.089713E-3,-3.945708E-2,-5.011337E-2,-4.053293E-3,7.730451E-2,-1.9080643E-2],"split_indices":[6,3,2,6,3,1,6,0,0,3,2,2,3,9,3,2,1,9,3,2,1,0,3,3,6,3,3,0,0,1,3,0,0,0,0,0,0,0,0,0,0,0,0,0,0,0,0,0,0,0,0,0,0,0,0,0,0,0,0,0,0],"split_type":[0,0,0,0,0,0,0,0,0,0,0,0,0,0,0,0,0,0,0,0,0,0,0,0,0,0,0,0,0,0,0,0,0,0,0,0,0,0,0,0,0,0,0,0,0,0,0,0,0,0,0,0,0,0,0,0,0,0,0,0,0],"sum_hessian":[2.2786887E4,8.589122E3,1.4197765E4,1.6221912E3,6.9669307E3,1.4064302E4,1.334626E2,1.5591792E3,6.3012062E1,4.786772E2,6.4882534E3,3.758729E3,1.0305573E4,4.9881454E0,1.2847446E2,9.5178516E2,6.0739404E2,2.288691E1,4.0125153E1,4.1122626E2,6.7450905E1,2.8589524E3,3.6293013E3,3.6149192E3,1.4380994E2,3.8329724E3,6.4726006E3,2.4899921E0,2.4981532E0,5.2281048E1,7.6193405E1,1.3488422E1,9.382967E2,4.095743E2,1.9781972E2,1.306704E1,9.819868E0,2.9076326E1,1.1048828E1,2.4392712E2,1.6729915E2,3.4342426E1,3.310848E1,1.4176389E2,2.7171885E3,2.9957825E3,6.3351874E2,2.7344607E3,8.804586E2,1.0551306E2,3.829687E1,1.7644133E3,2.068559E3,2.5065562E3,3.9660444E3,1.2481112E0,1.2500417E0,3.729786E1,1.4983187E1,4.187011E0,7.200639E1],"tree_param":{"num_deleted":"0","num_feature":"12","num_nodes":"61","size_leaf_vector":"1"}},{"base_weights":[1.4113547E-1,1.2334512E-1,1.4797845E-1,1.20065756E-1,2.2169279E-1,1.4980176E-1,4.775284E-2,9.728117E-2,1.3329938E-1,-3.135902E-1,2.4699235E-1,1.401468E-1,1.7000172E-1,1.7191535E-2,6.129139E-1,2.0870212E-2,1.1158875E-1,1.4544591E-1,8.222177E-2,-8.489369E-3,-6.1272383E-2,7.953081E-1,2.3014787E-1,1.4596373E-1,8.028792E-2,2.5903195E-1,1.638481E-1,3.1741228E-2,-4.724798E-1,-4.181541E-3,7.421876E-1,1.733651E-2,-3.1243693E-3,2.0590996E-2,9.689912E-3,1.4278904E-2,4.398976E-2,-1.6537428E-2,1.0691112E-2,-3.6640234E-2,5.748933E-2,-5.406238E-3,1.0592083E-1,-3.573147E-2,2.474044E-2,1.8947259E-2,1.3899713E-2,1.6034579E-2,3.8103058E-3,1.22089675E-2,3.605376E-2,1.8096544E-2,1.2900059E-2,-5.203913E-3,1.4563605E-2,-6.4394176E-2,-1.1455364E-2,-2.9224243E-3,8.264575E-2],"categories":[],"categories_nodes":[],"categories_segments":[],"categories_sizes":[],"default_left":[0,0,0,0,0,0,0,0,0,0,0,0,0,0,0,0,0,0,0,0,0,0,0,0,0,0,0,0,0,0,0,0,0,0,0,0,0,0,0,0,0,0,0,0,0,0,0,0,0,0,0,0,0,0,0,0,0,0,0],"id":14,"left_children":[1,3,5,7,9,11,13,15,17,19,21,23,25,27,29,31,33,35,37,39,-1,41,43,45,47,49,51,53,55,-1,57,-1,-1,-1,-1,-1,-1,-1,-1,-1,-1,-1,-1,-1,-1,-1,-1,-1,-1,-1,-1,-1,-1,-1,-1,-1,-1,-1,-1],"loss_changes":[3.1151733E0,2.281334E0,3.388855E0,2.0757828E0,3.1886225E0,3.535675E0,5.7497244E0,2.784277E0,2.705101E0,9.8126733E-1,1.8482218E0,4.2900696E0,3.1886444E0,2.276488E0,1.4766903E0,3.2099109E0,2.954361E0,2.704071E0,5.175019E0,1.5396651E0,0E0,1.4352481E0,2.2657347E0,3.3863678E0,3.6969056E0,5.232031E0,3.2687683E0,2.958003E0,4.9221945E-1,0E0,9.5486736E-1,0E0,0E0,0E0,0E0,0E0,0E0,0E0,0E0,0E0,0E0,0E0,0E0,0E0,0E0,0E0,0E0,0E0,0E0,0E0,0E0,0E0,0E0,0E0,0E0,0E0,0E0,0E0,0E0],"parents":[2147483647,0,0,1,1,2,2,3,3,4,4,5,5,6,6,7,7,8,8,9,9,10,10,11,11,12,12,13,13,14,14,15,15,16,16,17,17,18,18,19,19,21,21,22,22,23,23,24,24,25,25,26,26,27,27,28,28,30,30],"right_children":[2,4,6,8,10,12,14,16,18,20,22,24,26,28,30,32,34,36,38,40,-1,42,44,46,48,50,52,54,56,-1,58,-1,-1,-1,-1,-1,-1,-1,-1,-1,-1,-1,-1,-1,-1,-1,-1,-1,-1,-1,-1,-1,-1,-1,-1,-1,-1,-1,-1],"split_conditions":[3E1,7.1E2,7.18E2,1.7E1,2E1,4.93E2,4.71E2,1.28E2,4.02E2,1.88E2,3.5E1,4.51E2,4.1E1,7.9E1,2.3E1,1.28E2,2.07E2,3.99E2,4.1E2,1.9E1,-6.1272383E-2,1.11E2,4.5E1,3.7E1,2.7E1,1.8E1,3.4E1,5.9E1,8E1,-4.181541E-3,1E1,1.733651E-2,-3.1243693E-3,2.0590996E-2,9.689912E-3,1.4278904E-2,4.398976E-2,-1.6537428E-2,1.0691112E-2,-3.6640234E-2,5.748933E-2,-5.406238E-3,1.0592083E-1,-3.573147E-2,2.474044E-2,1.8947259E-2,1.3899713E-2,1.6034579E-2,3.8103058E-3,1.22089675E-2,3.605376E-2,1.8096544E-2,1.2900059E-2,-5.203913E-3,1.4563605E-2,-6.4394176E-2,-1.1455364E-2,-2.9224243E-3,8.264575E-2],"split_indices":[6,2,2,1,3,2,3,2,3,7,3,2,3,6,0,7,2,3,3,6,0,7,3,6,0,1,0,6,6,0,1,0,0,0,0,0,0,0,0,0,0,0,0,0,0,0,0,0,0,0,0,0,0,0,0,0,0,0,0],"split_type":[0,0,0,0,0,0,0,0,0,0,0,0,0,0,0,0,0,0,0,0,0,0,0,0,0,0,0,0,0,0,0,0,0,0,0,0,0,0,0,0,0,0,0,0,0,0,0,0,0,0,0,0,0,0,0,0,0,0,0],"sum_hessian":[2.5737746E4,7.1550664E3,1.858268E4,6.9263315E3,2.28735E2,1.8250178E4,3.3250174E2,2.5479053E3,4.3784263E3,9.808733E0,2.1892627E2,1.2353522E4,5.896656E3,3.1642154E2,1.6080196E1,4.022279E2,2.1456772E3,3.5357568E3,8.426696E2,5.365045E0,4.4436884E0,5.147628E0,2.1377864E2,1.1258058E4,1.095465E3,3.785607E2,5.518095E3,3.0819913E2,8.222398E0,2.763005E0,1.3317191E1,1.0185494E2,3.0037296E2,2.87384E2,1.8582933E3,3.50561E3,3.0146706E1,7.5891975E1,7.6677765E2,3.5555828E0,1.8094622E0,1.4087297E0,3.738898E0,5.538145E0,2.082405E2,1.5502185E3,9.707839E3,3.770684E2,7.183966E2,1.6208844E2,2.1647226E2,3.697611E3,1.820484E3,1.778885E2,1.3031062E2,5.018994E0,3.203404E0,1.3758435E0,1.1941348E1],"tree_param":{"num_deleted":"0","num_feature":"12","num_nodes":"59","size_leaf_vector":"1"}},{"base_weights":[1.3975936E-1,1.4174181E-1,7.6576E-2,1.3150021E-1,1.4905562E-1,4.976815E-1,5.7946157E-2,1.4425492E-1,1.00927405E-1,1.3948451E-1,1.680632E-1,-3.6314732E-1,6.0221946E-1,-2.7517783E-2,1.1782521E-1,1.375116E-1,2.3083135E-1,1.0634301E-1,-9.892484E-2,1.4189288E-1,-1.0517587E-1,1.715394E-1,4.9201086E-2,-5.0975956E-2,-3.5724204E-3,4.1060486E-1,9.300659E-1,4.485491E-2,-1.0819138E-1,1.6368797E-1,-9.723203E-2,1.2252021E-2,1.7205333E-2,2.1500334E-2,5.248472E-2,7.2442554E-3,1.343713E-2,-2.6498228E-2,1.3534889E-2,-9.002712E-3,1.432982E-2,-3.3681363E-2,5.734385E-4,1.5096679E-2,1.9194072E-2,-3.9207754E-3,2.691692E-2,-2.8149033E-2,6.240965E-2,-3.2902122E-3,1.0824641E-1,-5.3888964E-3,1.9230573E-2,-7.0843003E-3,-4.5107342E-2,4.3225657E-2,1.30358115E-2,-1.7618706E-2,5.4899193E-2],"categories":[],"categories_nodes":[],"categories_segments":[],"categories_sizes":[],"default_left":[0,0,0,0,0,0,0,0,0,0,0,0,0,0,0,0,0,0,0,0,0,0,0,0,0,0,0,0,0,0,0,0,0,0,0,0,0,0,0,0,0,0,0,0,0,0,0,0,0,0,0,0,0,0,0,0,0,0,0],"id":15,"left_children":[1,3,5,7,9,11,13,15,17,19,21,23,25,27,29,31,33,35,37,39,41,43,45,-1,-1,47,49,51,53,55,57,-1,-1,-1,-1,-1,-1,-1,-1,-1,-1,-1,-1,-1,-1,-1,-1,-1,-1,-1,-1,-1,-1,-1,-1,-1,-1,-1,-1],"loss_changes":[3.2340088E0,1.8617554E0,6.1709175E0,4.069092E0,2.6408386E0,3.2197247E0,3.8818946E0,4.280945E0,3.3507175E0,5.7577515E0,2.016098E0,1.8509221E-1,1.5098553E0,1.8326839E0,4.4134636E0,3.5290527E0,2.3644142E0,2.8457222E0,3.2235727E0,3.158554E0,2.457448E0,1.9689026E0,2.745381E0,0E0,0E0,3.248423E0,1.549777E0,2.423335E0,1.8676233E0,3.2365017E0,4.127371E0,0E0,0E0,0E0,0E0,0E0,0E0,0E0,0E0,0E0,0E0,0E0,0E0,0E0,0E0,0E0,0E0,0E0,0E0,0E0,0E0,0E0,0E0,0E0,0E0,0E0,0E0,0E0,0E0],"parents":[2147483647,0,0,1,1,2,2,3,3,4,4,5,5,6,6,7,7,8,8,9,9,10,10,11,11,12,12,13,13,14,14,15,15,16,16,17,17,18,18,19,19,20,20,21,21,22,22,25,25,26,26,27,27,28,28,29,29,30,30],"right_children":[2,4,6,8,10,12,14,16,18,20,22,24,26,28,30,32,34,36,38,40,42,44,46,-1,-1,48,50,52,54,56,58,-1,-1,-1,-1,-1,-1,-1,-1,-1,-1,-1,-1,-1,-1,-1,-1,-1,-1,-1,-1,-1,-1,-1,-1,-1,-1,-1,-1],"split_conditions":[2.94E2,4.2E1,2.7E1,6E1,3.4E1,1.9E1,3.12E2,2.77E2,2.88E2,7.24E2,4.86E2,1.4E1,7.8E1,4.7E1,6.48E2,3.56E2,4.82E2,1.62E2,2.69E2,1.3E1,2.5E1,1E0,2.23E2,-5.0975956E-2,-3.5724204E-3,1.85E2,1.3E1,3.2E1,4.53E2,3.53E2,7.24E2,1.2252021E-2,1.7205333E-2,2.1500334E-2,5.248472E-2,7.2442554E-3,1.343713E-2,-2.6498228E-2,1.3534889E-2,-9.002712E-3,1.432982E-2,-3.3681363E-2,5.734385E-4,1.5096679E-2,1.9194072E-2,-3.9207754E-3,2.691692E-2,-2.8149033E-2,6.240965E-2,-3.2902122E-3,1.0824641E-1,-5.3888964E-3,1.9230573E-2,-7.0843003E-3,-4.5107342E-2,4.3225657E-2,1.30358115E-2,-1.7618706E-2,5.4899193E-2],"split_indices":[7,8,3,6,0,6,2,7,7,2,3,6,8,6,2,3,3,7,3,3,0,11,7,0,0,2,3,0,3,2,2,0,0,0,0,0,0,0,0,0,0,0,0,0,0,0,0,0,0,0,0,0,0,0,0,0,0,0,0],"split_type":[0,0,0,0,0,0,0,0,0,0,0,0,0,0,0,0,0,0,0,0,0,0,0,0,0,0,0,0,0,0,0,0,0,0,0,0,0,0,0,0,0,0,0,0,0,0,0,0,0,0,0,0,0,0,0,0,0,0,0],"sum_hessian":[2.590459E4,2.5115322E4,7.892682E2,1.0471263E4,1.464406E4,3.234875E1,7.5691943E2,7.386119E3,3.085143E3,9.745252E3,4.898808E3,3.2351055E0,2.9113646E1,3.120617E2,4.4485776E2,6.8547974E3,5.3132214E2,3.004203E3,8.094012E1,9.650673E3,9.457886E1,4.759179E3,1.3962892E2,1.8498871E0,1.3852184E0,1.979601E1,9.3176365E0,1.6472768E2,1.4733403E2,3.6686053E2,7.7997215E1,4.7833364E3,2.0714604E3,5.0582303E2,2.5499142E1,1.3612926E3,1.6429104E3,4.7289433E1,3.3650684E1,5.774563E1,9.592927E3,2.996328E1,6.461558E1,2.3738237E3,2.3853557E3,1.0018475E2,3.9444164E1,4.591811E0,1.5204199E1,1.3802531E0,7.937383E0,9.903866E1,6.568902E1,1.3395015E2,1.3383889E1,3.918033E1,3.276802E2,7.015331E1,7.8439064E0],"tree_param":{"num_deleted":"0","num_feature":"12","num_nodes":"59","size_leaf_vector":"1"}},{"base_weights":[-3.12712E-1,-3.1608152E-1,-2.5526196E-1,-2.7722996E-1,-3.1790525E-1,-1.1546744E-1,-2.6924214E-1,3.864536E-1,-2.8127357E-1,-3.3251727E-1,-3.1338748E-1,-4.2176613E-1,-3.1373113E-2,-8.482133E-2,-2.782071E-1,-4.6199527E-2,9.0155786E-1,-4.1622937E-1,-2.588151E-1,-2.7380037E-1,-3.414291E-1,-3.1142604E-1,-3.5802594E-1,-2.8518477E-1,-6.1511774E-2,-2.713409E-1,1.4781767E-1,5.1378824E-2,-5.533902E-1,-2.8772894E-1,-1.2459065E-1,1.1155041E-1,3.4186084E-2,-4.339188E-2,3.861587E-2,4.3810005E-3,-2.6927678E-2,-2.1196036E-2,-3.4201693E-2,-4.370451E-2,-3.335182E-2,-3.1319637E-2,-2.496211E-2,-3.7948385E-2,-1.6415818E-2,-4.4269543E-2,6.980946E-2,2.090573E-3,-4.5873463E-2,-3.1726465E-2,2.1507688E-2,-1.7636016E-2,3.4356985E-2,6.0910056E-3,-6.2768124E-2,-5.009086E-2,-2.8214157E-2,-1.6621074E-2,3.6344185E-2],"categories":[],"categories_nodes":[],"categories_segments":[],"categories_sizes":[],"default_left":[0,0,0,0,0,0,0,0,0,0,0,0,0,0,0,0,0,0,0,0,0,0,0,0,0,0,0,0,0,0,0,0,0,0,0,0,0,0,0,0,0,0,0,0,0,0,0,0,0,0,0,0,0,0,0,0,0,0,0],"id":16,"left_children":[1,3,5,7,9,11,13,15,17,19,21,23,25,27,29,-1,31,33,35,37,39,41,43,45,-1,47,49,51,53,55,57,-1,-1,-1,-1,-1,-1,-1,-1,-1,-1,-1,-1,-1,-1,-1,-1,-1,-1,-1,-1,-1,-1,-1,-1,-1,-1,-1,-1],"loss_changes":[4.251465E0,1.4091797E0,2.4020767E0,2.672699E0,1.2282715E0,2.9473295E0,1.846405E0,3.1292036E0,2.7722168E0,2.3917236E0,1.239624E0,4.7628736E-1,3.9642632E0,3.4665086E0,1.5412292E0,0E0,1.21701956E-1,2.0684128E0,2.5992622E0,2.588993E0,2.9702759E0,1.5400391E0,2.6119766E0,2.837667E0,0E0,2.1654842E0,1.722793E0,2.898972E0,5.958023E-1,1.0670547E0,1.3744673E0,0E0,0E0,0E0,0E0,0E0,0E0,0E0,0E0,0E0,0E0,0E0,0E0,0E0,0E0,0E0,0E0,0E0,0E0,0E0,0E0,0E0,0E0,0E0,0E0,0E0,0E0,0E0,0E0],"parents":[2147483647,0,0,1,1,2,2,3,3,4,4,5,5,6,6,7,7,8,8,9,9,10,10,11,11,12,12,13,13,14,14,16,16,17,17,18,18,19,19,20,20,21,21,22,22,23,23,25,25,26,26,27,27,28,28,29,29,30,30],"right_children":[2,4,6,8,10,12,14,16,18,20,22,24,26,28,30,-1,32,34,36,38,40,42,44,46,-1,48,50,52,54,56,58,-1,-1,-1,-1,-1,-1,-1,-1,-1,-1,-1,-1,-1,-1,-1,-1,-1,-1,-1,-1,-1,-1,-1,-1,-1,-1,-1,-1],"split_conditions":[2.88E2,1E1,9E0,1.3E1,1.5E1,1.65E2,1E1,2.48E2,7.7E1,1.12E2,4.8E2,3.3E2,1.8E1,5E0,4.71E2,-4.6199527E-2,5.1E2,9.7E1,4.4E1,2.63E2,1.59E2,4.67E2,9E1,3.03E2,-6.1511774E-2,1E0,6.4E1,2.96E2,1.3E1,3.8E1,3E2,1.1155041E-1,3.4186084E-2,-4.339188E-2,3.861587E-2,4.3810005E-3,-2.6927678E-2,-2.1196036E-2,-3.4201693E-2,-4.370451E-2,-3.335182E-2,-3.1319637E-2,-2.496211E-2,-3.7948385E-2,-1.6415818E-2,-4.4269543E-2,6.980946E-2,2.090573E-3,-4.5873463E-2,-3.1726465E-2,2.1507688E-2,-1.7636016E-2,3.4356985E-2,6.0910056E-3,-6.2768124E-2,-5.009086E-2,-2.8214157E-2,-1.6621074E-2,3.6344185E-2],"split_indices":[7,1,8,3,1,2,1,2,3,2,3,3,1,10,3,0,2,8,2,3,2,3,8,3,0,9,3,7,8,2,7,0,0,0,0,0,0,0,0,0,0,0,0,0,0,0,0,0,0,0,0,0,0,0,0,0,0,0,0],"split_type":[0,0,0,0,0,0,0,0,0,0,0,0,0,0,0,0,0,0,0,0,0,0,0,0,0,0,0,0,0,0,0,0,0,0,0,0,0,0,0,0,0,0,0,0,0,0,0,0,0,0,0,0,0,0,0,0,0,0,0],"sum_hessian":[2.2377402E4,2.1133406E4,1.2439962E3,9.544032E2,2.0179004E4,1.13937645E2,1.1300586E3,5.206962E0,9.491962E2,4.7484087E3,1.5430594E4,2.3678286E1,9.025936E1,5.2872166E1,1.0771864E3,2.005963E0,3.200999E0,1.3292139E2,8.1627484E2,6.299066E2,4.1185024E3,1.478874E4,6.418538E2,1.5326662E1,8.351624E0,3.836614E1,5.1893223E1,4.1654648E1,1.1217516E1,1.0134925E3,6.3693897E1,1.597354E0,1.603645E0,1.3050352E2,2.4178658E0,2.7169008E1,7.8910583E2,3.3254938E2,2.9735724E2,3.1056598E2,3.8079363E3,1.4372978E4,4.157624E2,5.77029E2,6.482483E1,1.3684355E1,1.6423079E0,1.5336621E1,2.3029518E1,6.086866E0,4.580636E1,2.3631922E1,1.8022728E1,1.229671E0,9.987845E0,2.3620697E1,9.8987177E2,5.929644E1,4.3974543E0],"tree_param":{"num_deleted":"0","num_feature":"12","num_nodes":"59","size_leaf_vector":"1"}},{"base_weights":[1.2940572E-1,1.11622855E-1,1.3622612E-1,1.6906928E-1,1.0129403E-1,1.6362168E-1,1.3179156E-1,7.653895E-1,1.632685E-1,9.90259E-2,3.0993536E-1,1.7733935E-1,-1.8818937E-2,1.2196656E-1,1.5110138E-1,3.394375E-1,1.11799024E-1,1.0654906E-2,1.8358135E-1,1.1084965E-1,7.033089E-2,2.113068E-1,7.414492E-1,1.988333E-1,1.1408729E-1,-3.9288184E-1,2.0963253E-2,8.440864E-2,1.3143246E-1,1.8677852E-1,1.3506477E-1,7.626549E-2,-2.4346225E-2,-1.7288424E-3,8.355609E-2,1.308022E-2,2.29666E-2,9.968173E-3,1.6100032E-2,1.6607618E-2,5.896591E-3,5.045126E-3,5.2777257E-2,3.9764043E-2,1.0916628E-1,1.6823702E-2,2.5447551E-2,-5.874414E-3,1.4125811E-2,5.5123713E-2,-5.3857993E-2,5.752725E-2,-6.897555E-4,-1.2512216E-2,9.42986E-3,1.3617662E-2,7.1002694E-4,1.2746723E-2,2.1578899E-2,2.815279E-3,1.4263079E-2],"categories":[],"categories_nodes":[],"categories_segments":[],"categories_sizes":[],"default_left":[0,0,0,0,0,0,0,0,0,0,0,0,0,0,0,0,0,0,0,0,0,0,0,0,0,0,0,0,0,0,0,0,0,0,0,0,0,0,0,0,0,0,0,0,0,0,0,0,0,0,0,0,0,0,0,0,0,0,0,0,0],"id":17,"left_children":[1,3,5,7,9,11,13,15,17,19,21,23,25,27,29,31,-1,33,35,37,39,41,43,45,47,49,51,53,55,57,59,-1,-1,-1,-1,-1,-1,-1,-1,-1,-1,-1,-1,-1,-1,-1,-1,-1,-1,-1,-1,-1,-1,-1,-1,-1,-1,-1,-1,-1,-1],"loss_changes":[3.109375E0,4.2237015E0,2.2400818E0,3.637598E0,2.8372955E0,6.483795E0,3.0222778E0,1.1536417E0,3.3414707E0,2.026802E0,2.597159E0,3.251686E0,2.716393E0,3.7673035E0,3.064743E0,1.6804054E0,0E0,2.9591634E0,2.284954E0,2.3615532E0,1.8973398E0,2.7256205E0,9.6735907E-1,3.0152054E0,2.887844E0,2.7102764E0,2.5589767E0,4.4509335E0,5.004898E0,2.849701E0,3.0128021E0,0E0,0E0,0E0,0E0,0E0,0E0,0E0,0E0,0E0,0E0,0E0,0E0,0E0,0E0,0E0,0E0,0E0,0E0,0E0,0E0,0E0,0E0,0E0,0E0,0E0,0E0,0E0,0E0,0E0,0E0],"parents":[2147483647,0,0,1,1,2,2,3,3,4,4,5,5,6,6,7,7,8,8,9,9,10,10,11,11,12,12,13,13,14,14,15,15,17,17,18,18,19,19,20,20,21,21,22,22,23,23,24,24,25,25,26,26,27,27,28,28,29,29,30,30],"right_children":[2,4,6,8,10,12,14,16,18,20,22,24,26,28,30,32,-1,34,36,38,40,42,44,46,48,50,52,54,56,58,60,-1,-1,-1,-1,-1,-1,-1,-1,-1,-1,-1,-1,-1,-1,-1,-1,-1,-1,-1,-1,-1,-1,-1,-1,-1,-1,-1,-1,-1,-1],"split_conditions":[3E1,1.3E1,1.4E1,1E0,7.24E2,6.82E2,4.93E2,3.3E1,1.04E2,2.5E1,5E0,2.42E2,3.5E1,2E0,5.66E2,1.7E1,1.11799024E-1,3E1,3E1,2.7E1,1E1,2.3E1,1.5E1,9E0,1.12E2,3.1E1,7.3E1,1E1,4.76E2,1.39E2,2E1,7.626549E-2,-2.4346225E-2,-1.7288424E-3,8.355609E-2,1.308022E-2,2.29666E-2,9.968173E-3,1.6100032E-2,1.6607618E-2,5.896591E-3,5.045126E-3,5.2777257E-2,3.9764043E-2,1.0916628E-1,1.6823702E-2,2.5447551E-2,-5.874414E-3,1.4125811E-2,5.5123713E-2,-5.3857993E-2,5.752725E-2,-6.897555E-4,-1.2512216E-2,9.42986E-3,1.3617662E-2,7.1002694E-4,1.2746723E-2,2.1578899E-2,2.815279E-3,1.4263079E-2],"split_indices":[6,6,8,8,2,2,2,0,2,6,10,7,6,10,2,1,0,1,0,1,8,1,5,8,2,6,7,1,2,7,8,0,0,0,0,0,0,0,0,0,0,0,0,0,0,0,0,0,0,0,0,0,0,0,0,0,0,0,0,0,0],"split_type":[0,0,0,0,0,0,0,0,0,0,0,0,0,0,0,0,0,0,0,0,0,0,0,0,0,0,0,0,0,0,0,0,0,0,0,0,0,0,0,0,0,0,0,0,0,0,0,0,0,0,0,0,0,0,0,0,0,0,0,0,0],"sum_hessian":[2.5761174E4,7.1462026E3,1.8614973E4,1.0867262E3,6.0594766E3,2.5884307E3,1.6026541E4,9.207866E0,1.0775184E3,5.995771E3,6.3705357E1,2.4074436E3,1.8098705E2,1.0626834E4,5.3997075E3,5.059052E0,4.148814E0,1.26750046E2,9.507683E2,4.2441216E3,1.7516494E3,5.306605E1,1.0639305E1,1.7952488E3,6.1219476E2,1.6544746E1,1.644423E2,2.1411794E3,8.485654E3,1.6711661E3,3.7285413E3,2.7523286E0,2.306723E0,1.2354409E2,3.2059598E0,4.4498294E2,5.057854E2,3.4735857E3,7.705359E2,1.8441501E2,1.5672345E3,3.5951687E1,1.7114365E1,6.446309E0,4.1929955E0,1.1609143E3,6.343345E2,8.301037E1,5.291844E2,1.8397574E0,1.47049885E1,6.929391E0,1.5751291E2,9.59843E1,2.0451951E3,8.173676E3,3.119788E2,5.5068854E2,1.1204777E3,2.4673653E2,3.4818047E3],"tree_param":{"num_deleted":"0","num_feature":"12","num_nodes":"61","size_leaf_vector":"1"}},{"base_weights":[1.2883107E-1,1.15370855E-1,1.3838752E-1,1.0061054E-1,1.3493331E-1,1.2477196E-1,1.519621E-1,2.0634523E-1,9.544717E-2,1.6322924E-1,1.1071297E-1,1.2842245E-1,5.718928E-2,2.4686417E-1,1.4869346E-1,5.075943E-1,1.7074032E-1,1.1008534E-1,6.2214877E-2,-1.3035962E-2,1.6965915E-1,1.4970307E-1,7.292481E-2,1.8619674E-1,1.2400078E-1,-7.5668804E-2,9.363272E-2,3.071159E-1,9.248041E-3,1.3716553E-1,1.7797506E-1,-5.5176932E-2,6.1697662E-2,-3.4748487E-2,1.9757075E-2,1.1958338E-2,4.267097E-3,5.8006155E-3,6.80783E-2,3.336043E-2,-2.4176441E-2,6.3895725E-2,1.675479E-2,2.021575E-2,9.2335E-3,9.883818E-3,-4.5525557E-3,6.7947367E-3,2.4132483E-2,1.5684038E-2,1.1581084E-2,3.0244937E-2,-1.28754005E-2,1.2369976E-2,-4.0792306E-3,2.0575171E-2,4.73503E-2,5.0824534E-2,-1.3884065E-2,1.44107295E-2,6.796919E-3,1.50568485E-2,2.0590764E-2],"categories":[],"categories_nodes":[],"categories_segments":[],"categories_sizes":[],"default_left":[0,0,0,0,0,0,0,0,0,0,0,0,0,0,0,0,0,0,0,0,0,0,0,0,0,0,0,0,0,0,0,0,0,0,0,0,0,0,0,0,0,0,0,0,0,0,0,0,0,0,0,0,0,0,0,0,0,0,0,0,0,0,0],"id":18,"left_children":[1,3,5,7,9,11,13,15,17,19,21,23,25,27,29,31,33,35,37,39,41,43,45,47,49,51,53,55,57,59,61,-1,-1,-1,-1,-1,-1,-1,-1,-1,-1,-1,-1,-1,-1,-1,-1,-1,-1,-1,-1,-1,-1,-1,-1,-1,-1,-1,-1,-1,-1,-1,-1],"loss_changes":[3.3432617E0,3.119049E0,2.802826E0,3.3582878E0,3.177391E0,1.8744888E0,2.3334198E0,2.994053E0,2.8638268E0,2.437008E0,3.6951027E0,1.8254318E0,1.9084728E0,3.6176195E0,2.4696655E0,3.7995453E0,3.661076E0,2.6171799E0,4.6642966E0,6.1489997E0,1.9466591E0,3.703825E0,3.9312768E0,3.3240967E0,1.7904358E0,1.746812E0,1.2524023E0,3.304369E0,3.926688E0,2.5388489E0,1.5642166E0,0E0,0E0,0E0,0E0,0E0,0E0,0E0,0E0,0E0,0E0,0E0,0E0,0E0,0E0,0E0,0E0,0E0,0E0,0E0,0E0,0E0,0E0,0E0,0E0,0E0,0E0,0E0,0E0,0E0,0E0,0E0,0E0],"parents":[2147483647,0,0,1,1,2,2,3,3,4,4,5,5,6,6,7,7,8,8,9,9,10,10,11,11,12,12,13,13,14,14,15,15,16,16,17,17,18,18,19,19,20,20,21,21,22,22,23,23,24,24,25,25,26,26,27,27,28,28,29,29,30,30],"right_children":[2,4,6,8,10,12,14,16,18,20,22,24,26,28,30,32,34,36,38,40,42,44,46,48,50,52,54,56,58,60,62,-1,-1,-1,-1,-1,-1,-1,-1,-1,-1,-1,-1,-1,-1,-1,-1,-1,-1,-1,-1,-1,-1,-1,-1,-1,-1,-1,-1,-1,-1,-1,-1],"split_conditions":[4.2E1,1.4E1,1E0,2E0,1.9E1,9.8E1,4.4E1,1.1E1,5.9E1,4.4E1,1E0,7.1E1,1.76E2,5E0,8.5E1,8.5E1,1.2E1,3.7E1,7.27E2,3E1,4.6E1,4E2,6.8E1,1.6E1,2E0,4.1E1,6.23E2,3.4E1,1.2E1,2.9E1,1E0,-5.5176932E-2,6.1697662E-2,-3.4748487E-2,1.9757075E-2,1.1958338E-2,4.267097E-3,5.8006155E-3,6.80783E-2,3.336043E-2,-2.4176441E-2,6.3895725E-2,1.675479E-2,2.021575E-2,9.2335E-3,9.883818E-3,-4.5525557E-3,6.7947367E-3,2.4132483E-2,1.5684038E-2,1.1581084E-2,3.0244937E-2,-1.28754005E-2,1.2369976E-2,-4.0792306E-3,2.0575171E-2,4.73503E-2,5.0824534E-2,-1.3884065E-2,1.44107295E-2,6.796919E-3,1.50568485E-2,2.0590764E-2],"split_indices":[8,5,11,8,1,8,8,1,6,2,11,2,2,10,8,2,1,8,2,2,2,2,6,1,10,2,2,0,1,1,9,0,0,0,0,0,0,0,0,0,0,0,0,0,0,0,0,0,0,0,0,0,0,0,0,0,0,0,0,0,0,0,0],"split_type":[0,0,0,0,0,0,0,0,0,0,0,0,0,0,0,0,0,0,0,0,0,0,0,0,0,0,0,0,0,0,0,0,0,0,0,0,0,0,0,0,0,0,0,0,0,0,0,0,0,0,0,0,0,0,0,0,0,0,0,0,0,0,0],"sum_hessian":[2.6114277E4,1.0848001E4,1.5266277E4,6.186379E3,4.661622E3,7.6267236E3,7.639553E3,2.8622144E2,5.900157E3,2.1472786E3,2.5143435E3,7.2350215E3,3.9170215E2,2.5188206E2,7.3876714E3,2.8851961E1,2.5736948E2,4.0943599E3,1.8057976E3,7.553695E1,2.0717417E3,1.2360334E3,1.27831E3,5.1143512E2,6.7235864E3,8.408518E1,3.0761697E2,2.0069885E2,5.1183205E1,5.304873E3,2.0827983E3,2.3217273E0,2.6530235E1,1.2080748E1,2.4528871E2,3.5880623E3,5.0629755E2,1.7946804E3,1.1117194E1,2.9846209E1,4.5690742E1,7.927677E0,2.063814E3,6.443494E2,5.91684E2,1.0489885E3,2.2932156E2,1.6332867E2,3.4810645E2,1.3384777E3,5.385109E3,9.773379E0,7.4311806E1,2.5145374E2,5.616324E1,1.2610894E2,7.458991E1,1.1156936E1,4.0026268E1,4.8202266E3,4.8464633E2,1.0545236E3,1.0282749E3],"tree_param":{"num_deleted":"0","num_feature":"12","num_nodes":"63","size_leaf_vector":"1"}},{"base_weights":[-2.960444E-1,-2.986059E-1,-2.4904057E-1,-2.9759732E-1,-3.72423E-1,-1.1542953E-1,-2.6698318E-1,-2.98549E-1,-2.2937359E-1,-4.1693136E-1,-2.8601205E-1,-3.8595447E-1,-8.561612E-3,-5.9467312E-2,-2.7585042E-1,-3.403284E-1,-2.972142E-1,-1.2333775E-2,-2.761896E-1,-2.5293657E-1,-4.5555878E-1,-5.0990903E-1,-1.9839993E-1,-4.7581804E-1,2.6255634E-2,5.9316206E-1,-8.616531E-2,-3.2022804E-1,2.6151717E-1,-3.8181272E-1,-2.445112E-1,-1.602524E-2,-3.606101E-2,-2.7903894E-2,-3.0153418E-2,-2.8274542E-2,2.4468908E-2,-2.8651243E-2,2.6391065E-2,1.0169884E-1,-3.235667E-2,-9.02017E-3,-4.7802668E-2,7.3804604E-3,-5.404764E-2,-2.315142E-2,3.3593945E-2,-3.4108695E-2,-5.820808E-2,-5.1918607E-2,4.9843203E-2,-6.1529204E-3,1.0827469E-1,1.6199771E-2,-1.6511647E-2,1.8266723E-2,-4.8254725E-2,7.471773E-2,1.0342819E-2,-2.6475718E-2,-4.273219E-2,-3.8281117E-2,-2.2325885E-2],"categories":[],"categories_nodes":[],"categories_segments":[],"categories_sizes":[],"default_left":[0,0,0,0,0,0,0,0,0,0,0,0,0,0,0,0,0,0,0,0,0,0,0,0,0,0,0,0,0,0,0,0,0,0,0,0,0,0,0,0,0,0,0,0,0,0,0,0,0,0,0,0,0,0,0,0,0,0,0,0,0,0,0],"id":19,"left_children":[1,3,5,7,9,11,13,15,17,19,21,23,25,27,29,31,33,35,37,39,41,43,45,47,49,51,53,55,57,59,61,-1,-1,-1,-1,-1,-1,-1,-1,-1,-1,-1,-1,-1,-1,-1,-1,-1,-1,-1,-1,-1,-1,-1,-1,-1,-1,-1,-1,-1,-1,-1,-1],"loss_changes":[2.5646973E0,1.4360352E0,2.699112E0,1.2629395E0,9.427185E-1,3.9452221E0,1.8294983E0,1.0264893E0,2.9068317E0,1.0254154E0,1.8027048E0,1.4442906E0,4.6705217E0,3.6312566E0,3.1004868E0,2.203308E0,1.454956E0,3.6739242E0,1.3888836E0,3.6096718E0,1.1429596E0,5.1557827E-1,1.3410792E0,2.5654602E-1,2.2846112E0,3.7294955E0,1.76066E0,2.033799E0,1.4236001E0,1.046812E0,2.1043243E0,0E0,0E0,0E0,0E0,0E0,0E0,0E0,0E0,0E0,0E0,0E0,0E0,0E0,0E0,0E0,0E0,0E0,0E0,0E0,0E0,0E0,0E0,0E0,0E0,0E0,0E0,0E0,0E0,0E0,0E0,0E0,0E0],"parents":[2147483647,0,0,1,1,2,2,3,3,4,4,5,5,6,6,7,7,8,8,9,9,10,10,11,11,12,12,13,13,14,14,15,15,16,16,17,17,18,18,19,19,20,20,21,21,22,22,23,23,24,24,25,25,26,26,27,27,28,28,29,29,30,30],"right_children":[2,4,6,8,10,12,14,16,18,20,22,24,26,28,30,32,34,36,38,40,42,44,46,48,50,52,54,56,58,60,62,-1,-1,-1,-1,-1,-1,-1,-1,-1,-1,-1,-1,-1,-1,-1,-1,-1,-1,-1,-1,-1,-1,-1,-1,-1,-1,-1,-1,-1,-1,-1,-1],"split_conditions":[2.89E2,2.86E2,1.1E1,7.21E2,2.88E2,2.07E2,1E1,3E0,1.5E1,2.4E1,2.5E1,3.7E1,2.2E1,2.96E2,1.5E1,8.3E1,2.2E1,7E0,2.82E2,3E0,5.8E1,6E0,6.93E2,1.2E2,2.1E1,4E0,1.2E1,2.91E2,2.97E2,2.12E2,2.2E1,-1.602524E-2,-3.606101E-2,-2.7903894E-2,-3.0153418E-2,-2.8274542E-2,2.4468908E-2,-2.8651243E-2,2.6391065E-2,1.0169884E-1,-3.235667E-2,-9.02017E-3,-4.7802668E-2,7.3804604E-3,-5.404764E-2,-2.315142E-2,3.3593945E-2,-3.4108695E-2,-5.820808E-2,-5.1918607E-2,4.9843203E-2,-6.1529204E-3,1.0827469E-1,1.6199771E-2,-1.6511647E-2,1.8266723E-2,-4.8254725E-2,7.471773E-2,1.0342819E-2,-2.6475718E-2,-4.273219E-2,-3.8281117E-2,-2.2325885E-2],"split_indices":[7,7,8,2,7,2,1,8,8,0,0,0,0,7,1,7,8,8,7,8,2,8,2,2,1,8,5,7,7,2,8,0,0,0,0,0,0,0,0,0,0,0,0,0,0,0,0,0,0,0,0,0,0,0,0,0,0,0,0,0,0,0,0],"split_type":[0,0,0,0,0,0,0,0,0,0,0,0,0,0,0,0,0,0,0,0,0,0,0,0,0,0,0,0,0,0,0,0,0,0,0,0,0,0,0,0,0,0,0,0,0,0,0,0,0,0,0,0,0,0,0,0,0,0,0,0,0,0,0],"sum_hessian":[2.191734E4,2.0779604E4,1.1377365E3,2.0504484E4,2.7512015E2,1.355779E2,1.0021585E3,2.021907E4,2.8541418E2,1.790635E2,9.6056625E1,3.765265E1,9.792524E1,4.1383575E1,9.6077496E2,6.180971E2,1.9600973E4,5.086528E1,2.3454889E2,3.5575184E1,1.4348833E2,2.5660328E1,7.03963E1,3.0786705E1,6.8659434E0,1.04276705E1,8.7497574E1,2.2835155E1,1.854842E1,2.1674524E2,7.440297E2,6.3469463E1,5.546277E2,3.7767441E3,1.5824229E4,2.4738268E1,2.612701E1,2.306108E2,3.938103E0,1.1684116E0,3.4406773E1,8.603251E0,1.3488507E2,1.2065006E0,2.4453827E1,6.6821915E1,3.5743823E0,1.5431221E1,1.5355485E1,3.1396127E0,3.7263308E0,4.83562E0,5.5920506E0,2.086424E1,6.663333E1,5.541425E0,1.729373E1,3.6399472E0,1.4908473E1,6.2585285E1,1.5415996E2,9.6838615E1,6.471911E2],"tree_param":{"num_deleted":"0","num_feature":"12","num_nodes":"63","size_leaf_vector":"1"}},{"base_weights":[1.2028238E-1,1.1599189E-1,1.4684114E-1,1.191061E-1,5.39968E-2,-1.2656024E-1,1.4992073E-1,1.263426E-1,1.0338229E-1,1.3589445E-1,2.0875968E-2,-3.7163955E-1,1.3555568E-1,1.2239491E-1,1.750807E-1,1.2133106E-1,1.8811305E-1,1.5491176E-1,9.46057E-2,1.1846657E-1,9.796363E-2,-3.1213096E-1,3.2100163E-2,1.9328421E-2,-4.3520284E-1,4.3511423E-1,-2.6879373E-1,2.2249319E-1,1.08858444E-1,7.735331E-2,1.87654E-1,1.6382605E-2,1.1667809E-2,1.7415272E-2,2.7935756E-2,2.6958171E-2,1.0900928E-2,4.3432782E-3,1.037742E-2,2.477852E-2,4.6074263E-5,8.1223406E-2,-5.1703274E-2,7.5098323E-3,-4.6610027E-3,-5.427363E-2,1.7373033E-3,-5.0220727E-3,5.8521748E-2,3.5617597E-2,-5.266657E-2,1.7152257E-2,5.3932916E-2,-1.1389186E-2,1.1501557E-2,2.9570797E-2,1.1286872E-3,1.7694836E-2,3.3682924E-2],"categories":[],"categories_nodes":[],"categories_segments":[],"categories_sizes":[],"default_left":[0,0,0,0,0,0,0,0,0,0,0,0,0,0,0,0,0,0,0,0,0,0,0,0,0,0,0,0,0,0,0,0,0,0,0,0,0,0,0,0,0,0,0,0,0,0,0,0,0,0,0,0,0,0,0,0,0,0,0],"id":20,"left_children":[1,3,5,7,9,11,13,15,17,19,21,23,25,27,29,31,33,35,37,39,-1,41,43,-1,45,47,49,51,53,55,57,-1,-1,-1,-1,-1,-1,-1,-1,-1,-1,-1,-1,-1,-1,-1,-1,-1,-1,-1,-1,-1,-1,-1,-1,-1,-1,-1,-1],"loss_changes":[2.9421387E0,4.310852E0,3.0567474E0,2.4095764E0,2.9033635E0,2.6668105E0,2.4497375E0,4.4895325E0,3.0226746E0,4.4179826E0,2.865881E0,8.4954476E-1,2.5895631E0,2.2891579E0,2.2733078E0,2.647293E0,1.3423996E0,5.107069E0,2.689125E0,4.6274076E0,0E0,6.1811047E0,2.5081387E0,0E0,9.5686793E-1,9.1146684E-1,1.6872625E0,3.1764784E0,2.0784378E0,3.0829678E0,2.5738144E0,0E0,0E0,0E0,0E0,0E0,0E0,0E0,0E0,0E0,0E0,0E0,0E0,0E0,0E0,0E0,0E0,0E0,0E0,0E0,0E0,0E0,0E0,0E0,0E0,0E0,0E0,0E0,0E0],"parents":[2147483647,0,0,1,1,2,2,3,3,4,4,5,5,6,6,7,7,8,8,9,9,10,10,11,11,12,12,13,13,14,14,15,15,16,16,17,17,18,18,19,19,21,21,22,22,24,24,25,25,26,26,27,27,28,28,29,29,30,30],"right_children":[2,4,6,8,10,12,14,16,18,20,22,24,26,28,30,32,34,36,38,40,-1,42,44,-1,46,48,50,52,54,56,58,-1,-1,-1,-1,-1,-1,-1,-1,-1,-1,-1,-1,-1,-1,-1,-1,-1,-1,-1,-1,-1,-1,-1,-1,-1,-1,-1,-1],"split_conditions":[2.8E1,4E1,3E1,6.9E1,1.48E2,2.52E2,3E1,6.4E1,1.1E1,1.45E2,3E0,1.6E1,1.3E1,8.9E1,6.4E1,5.8E1,4.36E2,2.6E1,8.3E1,3.59E2,9.796363E-2,1.2E1,2.1E1,1.9328421E-2,2.57E2,2.4E1,2.9E1,6.29E2,9.5E1,2.04E2,2.87E2,1.6382605E-2,1.1667809E-2,1.7415272E-2,2.7935756E-2,2.6958171E-2,1.0900928E-2,4.3432782E-3,1.037742E-2,2.477852E-2,4.6074263E-5,8.1223406E-2,-5.1703274E-2,7.5098323E-3,-4.6610027E-3,-5.427363E-2,1.7373033E-3,-5.0220727E-3,5.8521748E-2,3.5617597E-2,-5.266657E-2,1.7152257E-2,5.3932916E-2,-1.1389186E-2,1.1501557E-2,2.9570797E-2,1.1286872E-3,1.7694836E-2,3.3682924E-2],"split_indices":[1,0,2,8,3,3,0,8,5,3,8,8,5,7,3,3,3,0,3,2,0,1,1,0,7,2,1,2,7,2,7,0,0,0,0,0,0,0,0,0,0,0,0,0,0,0,0,0,0,0,0,0,0,0,0,0,0,0,0],"split_type":[0,0,0,0,0,0,0,0,0,0,0,0,0,0,0,0,0,0,0,0,0,0,0,0,0,0,0,0,0,0,0,0,0,0,0,0,0,0,0,0,0,0,0,0,0,0,0,0,0,0,0,0,0,0,0,0,0,0,0],"sum_hessian":[2.596773E4,2.2360777E4,3.606953E3,2.1290375E4,1.0704028E3,3.972954E1,3.5672231E3,1.4575378E4,6.7149966E3,3.0734067E2,7.6306213E2,2.0316086E1,1.9413456E1,1.7063195E3,1.8609038E3,1.3484335E4,1.0910421E3,9.748383E2,5.740158E3,3.0223822E2,5.1024656E0,2.4006697E1,7.390554E2,1.8483062E0,1.846778E1,1.1108065E1,8.305392E0,2.014224E2,1.5048971E3,2.1294177E2,1.647962E3,1.3273744E3,1.2156961E4,9.4878705E2,1.4225504E2,2.7728183E2,6.975565E2,8.7305286E2,4.8671055E3,1.4368208E2,1.5855614E2,3.243655E0,2.0763042E1,4.7798535E2,2.610701E2,1.4761245E1,3.7065346E0,2.7811344E0,8.32693E0,2.314598E0,5.9907937E0,1.7483705E2,2.6585344E1,4.0007885E1,1.4648892E3,4.8655544E1,1.6428622E2,1.5396542E3,1.0830782E2],"tree_param":{"num_deleted":"0","num_feature":"12","num_nodes":"59","size_leaf_vector":"1"}},{"base_weights":[1.2087914E-1,1.01422004E-1,1.2476531E-1,5.7250407E-2,1.2473121E-1,1.3451871E-1,1.1524224E-1,6.730095E-2,-2.22498E-1,2.0833337E-1,1.08661406E-1,1.3885114E-1,6.581786E-2,1.0804858E-1,1.4606392E-1,-2.3655219E-2,8.707534E-2,-4.5568265E-2,-4.068643E-1,1.3496068E-1,2.968051E-1,1.2397853E-1,2.5209052E-2,5.0001364E-2,1.4156343E-1,6.9082472E-3,1.6823226E-1,-9.735978E-2,1.094512E-1,2.5934425E-1,1.2961033E-1,2.0762509E-2,-7.372634E-3,6.278214E-3,1.689105E-2,-3.0816222E-2,4.041828E-2,1.7547397E-2,-5.954758E-2,1.7347476E-2,-2.6805779E-2,7.554545E-2,2.7017174E-2,1.667341E-2,8.8974E-3,1.4140238E-2,-6.949227E-3,2.3531139E-2,-2.0527272E-3,1.3985681E-2,2.745611E-2,-7.5480193E-3,9.010017E-3,-3.5336707E-2,1.9266201E-2,4.8507946E-3,-3.3505235E-2,1.9697469E-2,1.0675047E-2,2.8248493E-2,-4.6916E-2,7.5879977E-3,1.6609872E-2],"categories":[],"categories_nodes":[],"categories_segments":[],"categories_sizes":[],"default_left":[0,0,0,0,0,0,0,0,0,0,0,0,0,0,0,0,0,0,0,0,0,0,0,0,0,0,0,0,0,0,0,0,0,0,0,0,0,0,0,0,0,0,0,0,0,0,0,0,0,0,0,0,0,0,0,0,0,0,0,0,0,0,0],"id":21,"left_children":[1,3,5,7,9,11,13,15,17,19,21,23,25,27,29,31,33,35,37,39,41,43,45,47,49,51,53,55,57,59,61,-1,-1,-1,-1,-1,-1,-1,-1,-1,-1,-1,-1,-1,-1,-1,-1,-1,-1,-1,-1,-1,-1,-1,-1,-1,-1,-1,-1,-1,-1,-1,-1],"loss_changes":[1.9656982E0,4.4830475E0,2.009674E0,4.255614E0,3.8114014E0,3.1951752E0,2.4318542E0,2.622108E0,1.6953111E0,2.9396572E0,3.0593128E0,2.433197E0,3.8633096E0,2.590393E0,3.854618E0,3.036971E0,2.3686476E0,3.4239528E0,2.9166365E0,3.969778E0,2.327732E0,3.0143776E0,4.1119432E0,3.9454439E0,2.191803E0,2.8010473E0,3.0480123E0,2.140128E0,2.0812607E0,4.575859E0,3.562498E0,0E0,0E0,0E0,0E0,0E0,0E0,0E0,0E0,0E0,0E0,0E0,0E0,0E0,0E0,0E0,0E0,0E0,0E0,0E0,0E0,0E0,0E0,0E0,0E0,0E0,0E0,0E0,0E0,0E0,0E0,0E0,0E0],"parents":[2147483647,0,0,1,1,2,2,3,3,4,4,5,5,6,6,7,7,8,8,9,9,10,10,11,11,12,12,13,13,14,14,15,15,16,16,17,17,18,18,19,19,20,20,21,21,22,22,23,23,24,24,25,25,26,26,27,27,28,28,29,29,30,30],"right_children":[2,4,6,8,10,12,14,16,18,20,22,24,26,28,30,32,34,36,38,40,42,44,46,48,50,52,54,56,58,60,62,-1,-1,-1,-1,-1,-1,-1,-1,-1,-1,-1,-1,-1,-1,-1,-1,-1,-1,-1,-1,-1,-1,-1,-1,-1,-1,-1,-1,-1,-1,-1,-1],"split_conditions":[1.7E1,1.44E2,3.69E2,1.41E2,1.69E2,9.6E1,8.5E1,2.2E1,1E0,4.34E2,6.23E2,6.7E1,2.46E2,3.72E2,8.7E1,1.2E1,3.6E1,1.43E2,1.5E1,4.03E2,4.48E2,4.1E1,7E0,1.5E1,9.5E1,1E0,1E1,1.4E1,1.9E1,7.9E1,4E1,2.0762509E-2,-7.372634E-3,6.278214E-3,1.689105E-2,-3.0816222E-2,4.041828E-2,1.7547397E-2,-5.954758E-2,1.7347476E-2,-2.6805779E-2,7.554545E-2,2.7017174E-2,1.667341E-2,8.8974E-3,1.4140238E-2,-6.949227E-3,2.3531139E-2,-2.0527272E-3,1.3985681E-2,2.745611E-2,-7.5480193E-3,9.010017E-3,-3.5336707E-2,1.9266201E-2,4.8507946E-3,-3.3505235E-2,1.9697469E-2,1.0675047E-2,2.8248493E-2,-4.6916E-2,7.5879977E-3,1.6609872E-2],"split_indices":[8,7,2,7,7,8,8,6,11,2,2,7,2,2,8,6,0,7,1,2,2,6,8,1,8,11,1,5,8,6,6,0,0,0,0,0,0,0,0,0,0,0,0,0,0,0,0,0,0,0,0,0,0,0,0,0,0,0,0,0,0,0,0],"split_type":[0,0,0,0,0,0,0,0,0,0,0,0,0,0,0,0,0,0,0,0,0,0,0,0,0,0,0,0,0,0,0,0,0,0,0,0,0,0,0,0,0,0,0,0,0,0,0,0,0,0,0,0,0,0,0,0,0,0,0,0,0,0,0],"sum_hessian":[2.6162934E4,4.3600815E3,2.1802852E4,1.5072523E3,2.852829E3,1.076468E4,1.1038172E4,1.4557123E3,5.154009E1,4.580239E2,2.3948052E3,1.0125145E4,6.3953516E2,8.953065E3,2.0851062E3,2.5992767E2,1.1957845E3,2.6936882E1,2.4603205E1,2.5175783E2,2.0626607E2,2.0230094E3,3.7179565E2,3.005084E2,9.824637E3,4.0667804E2,2.3285713E2,6.025678E1,8.89281E3,2.6257285E2,1.8225333E3,4.5698418E1,2.1422926E2,9.2342737E2,2.723572E2,1.720582E1,9.731062E0,6.036172E0,1.8567032E1,2.3031734E2,2.1440489E1,9.818492E0,1.9644759E2,9.089849E2,1.1140245E3,1.6673177E2,2.0506387E2,8.219893E1,2.1830946E2,9.702189E3,1.2244667E2,2.043723E2,2.0230574E2,9.815781E0,2.2304135E2,3.78344E1,2.242238E1,2.6403995E2,8.62877E3,2.5508249E2,7.4903564E0,7.383574E2,1.0841759E3],"tree_param":{"num_deleted":"0","num_feature":"12","num_nodes":"63","size_leaf_vector":"1"}},{"base_weights":[-2.7809882E-1,-2.798697E-1,-2.3381881E-1,-2.759855E-1,-3.040465E-1,-2.7814242E-1,-1.8702419E-1,-3.2204238E-1,-2.7355784E-1,-2.3527244E-1,-3.1134063E-1,-1.8788928E-1,-3.2845804E-1,-2.5634015E-1,-1.16383724E-1,-4.6130937E-1,-2.9765803E-1,-2.7284694E-1,-4.3421453E-1,-1.9948176E-1,-4.5087615E-1,-3.638419E-1,-3.0042547E-1,-3.1524795E-1,-8.6262E-2,-5.235178E-1,-2.8973785E-1,-5.25742E-2,-2.8933895E-1,-1.817421E-1,-5.431317E-3,-1.1092022E-2,-5.099788E-2,-3.135037E-2,-1.4570663E-2,-2.7343512E-2,-1.29194185E-2,-3.0025804E-2,-5.2035358E-2,-3.6537822E-2,-1.4267191E-2,-1.3689259E-2,-5.2437007E-2,-3.943373E-2,-2.9040098E-2,2.1420335E-2,-3.0210173E-2,-4.7668796E-2,-1.9522646E-2,2.6675066E-2,-2.59935E-2,-3.72769E-2,-6.1176956E-2,-3.5331365E-2,-1.9630043E-2,2.4343623E-2,-4.1258357E-2,-5.237196E-2,-2.2611875E-2,-2.2219105E-2,2.4735076E-2,3.2774474E-2,-1.4122875E-2],"categories":[],"categories_nodes":[],"categories_segments":[],"categories_sizes":[],"default_left":[0,0,0,0,0,0,0,0,0,0,0,0,0,0,0,0,0,0,0,0,0,0,0,0,0,0,0,0,0,0,0,0,0,0,0,0,0,0,0,0,0,0,0,0,0,0,0,0,0,0,0,0,0,0,0,0,0,0,0,0,0,0,0],"id":22,"left_children":[1,3,5,7,9,11,13,15,17,19,21,23,25,27,29,31,33,35,37,39,41,43,45,47,49,51,53,55,57,59,61,-1,-1,-1,-1,-1,-1,-1,-1,-1,-1,-1,-1,-1,-1,-1,-1,-1,-1,-1,-1,-1,-1,-1,-1,-1,-1,-1,-1,-1,-1,-1,-1],"loss_changes":[1.6176758E0,1.8540039E0,1.6727676E0,1.901123E0,1.3547363E0,1.8683319E0,1.9658232E0,2.8685913E0,1.8123779E0,2.0479774E0,1.3637848E0,1.972094E0,1.8992386E0,1.3624144E0,1.4760811E0,2.1615372E0,1.7747803E0,1.387085E0,6.836901E-1,2.2041454E0,8.201084E-1,8.657799E-1,1.9055176E0,1.2279744E0,5.42093E0,3.5380745E-1,1.2898579E0,3.273676E0,2.4910078E0,2.2791634E0,3.50918E0,0E0,0E0,0E0,0E0,0E0,0E0,0E0,0E0,0E0,0E0,0E0,0E0,0E0,0E0,0E0,0E0,0E0,0E0,0E0,0E0,0E0,0E0,0E0,0E0,0E0,0E0,0E0,0E0,0E0,0E0,0E0,0E0],"parents":[2147483647,0,0,1,1,2,2,3,3,4,4,5,5,6,6,7,7,8,8,9,9,10,10,11,11,12,12,13,13,14,14,15,15,16,16,17,17,18,18,19,19,20,20,21,21,22,22,23,23,24,24,25,25,26,26,27,27,28,28,29,29,30,30],"right_children":[2,4,6,8,10,12,14,16,18,20,22,24,26,28,30,32,34,36,38,40,42,44,46,48,50,52,54,56,58,60,62,-1,-1,-1,-1,-1,-1,-1,-1,-1,-1,-1,-1,-1,-1,-1,-1,-1,-1,-1,-1,-1,-1,-1,-1,-1,-1,-1,-1,-1,-1,-1,-1],"split_conditions":[2.92E2,4.33E2,2.54E2,3.1E1,2.2E1,9.7E1,1E0,2.3E1,2.91E2,6.48E2,1.46E2,2.96E2,1.23E2,1.12E2,3.3E1,9.6E1,2.7E2,2.9E2,3.7E1,4.51E2,9.7E1,6E1,1.48E2,3E0,2.98E2,3.5E1,4.57E2,3.3E1,2.5E1,4.76E2,1.79E2,-1.1092022E-2,-5.099788E-2,-3.135037E-2,-1.4570663E-2,-2.7343512E-2,-1.29194185E-2,-3.0025804E-2,-5.2035358E-2,-3.6537822E-2,-1.4267191E-2,-1.3689259E-2,-5.2437007E-2,-3.943373E-2,-2.9040098E-2,2.1420335E-2,-3.0210173E-2,-4.7668796E-2,-1.9522646E-2,2.6675066E-2,-2.59935E-2,-3.72769E-2,-6.1176956E-2,-3.5331365E-2,-1.9630043E-2,2.4343623E-2,-4.1258357E-2,-5.237196E-2,-2.2611875E-2,-2.2219105E-2,2.4735076E-2,3.2774474E-2,-1.4122875E-2],"split_indices":[7,3,3,3,0,3,4,0,7,2,2,7,3,2,0,7,7,7,6,3,7,6,2,10,7,6,2,0,0,3,2,0,0,0,0,0,0,0,0,0,0,0,0,0,0,0,0,0,0,0,0,0,0,0,0,0,0,0,0,0,0,0,0],"split_type":[0,0,0,0,0,0,0,0,0,0,0,0,0,0,0,0,0,0,0,0,0,0,0,0,0,0,0,0,0,0,0,0,0,0,0,0,0,0,0,0,0,0,0,0,0,0,0,0,0,0,0,0,0,0,0,0,0,0,0,0,0,0,0],"sum_hessian":[2.1465871E4,2.0635291E4,8.305808E2,1.7789656E4,2.8456348E3,4.2401355E2,4.065673E2,8.841455E2,1.690551E4,2.7605432E2,2.5695806E3,1.5346729E2,2.7054626E2,2.0388065E2,2.0268665E2,1.2906941E2,7.550761E2,1.6833719E4,7.1791374E1,2.3840396E2,3.765035E1,4.3670804E2,2.1328726E3,6.71781E1,8.6289185E1,4.2735943E1,2.2781032E2,2.8777061E1,1.7510358E2,1.2714924E2,7.553741E1,1.6141298E1,1.12928116E2,6.8280884E2,7.226725E1,1.6764178E4,6.9541145E1,2.9852654E1,4.193872E1,5.942858E1,1.7897539E2,7.684211E0,2.9966137E1,3.054885E2,1.3121956E2,6.5130076E0,2.1263594E3,2.7379051E1,3.9799053E1,2.827687E1,5.8012314E1,1.7709347E1,2.5026596E1,1.3391312E2,9.38972E1,1.5969921E1,1.2807139E1,3.5650383E1,1.394532E2,1.1663654E2,1.0512699E1,2.1463556E1,5.407385E1],"tree_param":{"num_deleted":"0","num_feature":"12","num_nodes":"63","size_leaf_vector":"1"}},{"base_weights":[1.1293958E-1,1.216762E-1,9.475608E-2,1.1778408E-1,2.4266177E-1,1.4442295E-1,8.6358145E-2,1.2787521E-1,9.71556E-2,1.7644209E-1,2.9857042E-1,1.2904719E-1,3.446676E-1,6.51957E-2,1.1600265E-1,1.9921575E-1,1.24402694E-1,8.543989E-2,1.4874929E-1,1.2935722E-1,5.175285E-1,6.984485E-1,2.3969723E-1,1.4335778E-1,-6.366082E-2,5.864138E-1,1.0185389E-1,6.952815E-2,-2.1676593E-1,1.3035718E-1,3.215795E-2,5.580771E-2,1.8329384E-2,5.359997E-3,1.2929516E-2,8.152296E-3,2.117073E-2,1.551324E-2,-5.080105E-2,3.8919233E-2,5.5007627E-3,6.517471E-2,-6.5484545E-3,1.0542674E-1,3.581023E-2,1.33523615E-2,3.1838015E-2,-3.4697816E-2,1.4732502E-2,-1.5952062E-2,2.8763724E-2,7.617061E-3,7.9367585E-2,3.218335E-2,-2.1714112E-2,-1.4462384E-2,7.2689764E-3,-8.846463E-3,-3.751747E-2,1.5213658E-2,7.855351E-3,-2.7984488E-3,2.2913927E-2],"categories":[],"categories_nodes":[],"categories_segments":[],"categories_sizes":[],"default_left":[0,0,0,0,0,0,0,0,0,0,0,0,0,0,0,0,0,0,0,0,0,0,0,0,0,0,0,0,0,0,0,0,0,0,0,0,0,0,0,0,0,0,0,0,0,0,0,0,0,0,0,0,0,0,0,0,0,0,0,0,0,0,0],"id":23,"left_children":[1,3,5,7,9,11,13,15,17,19,21,23,25,27,29,31,33,35,37,39,41,43,45,47,49,51,53,55,57,59,61,-1,-1,-1,-1,-1,-1,-1,-1,-1,-1,-1,-1,-1,-1,-1,-1,-1,-1,-1,-1,-1,-1,-1,-1,-1,-1,-1,-1,-1,-1,-1,-1],"loss_changes":[4.1266785E0,8.255127E0,3.515541E0,3.5358124E0,1.9737167E0,3.7175312E0,4.53294E0,2.809967E0,3.3742943E0,3.9963984E0,6.7853107E0,3.1428604E0,5.0196266E0,5.1765366E0,3.6225471E0,2.9229717E0,3.7738342E0,2.2423859E0,4.4201527E0,4.299271E0,2.4181252E0,4.1490555E0,2.1207962E0,2.109398E0,2.7144437E0,4.50294E0,3.1841881E0,2.828493E0,1.2712603E0,2.8905373E0,5.240557E0,0E0,0E0,0E0,0E0,0E0,0E0,0E0,0E0,0E0,0E0,0E0,0E0,0E0,0E0,0E0,0E0,0E0,0E0,0E0,0E0,0E0,0E0,0E0,0E0,0E0,0E0,0E0,0E0,0E0,0E0,0E0,0E0],"parents":[2147483647,0,0,1,1,2,2,3,3,4,4,5,5,6,6,7,7,8,8,9,9,10,10,11,11,12,12,13,13,14,14,15,15,16,16,17,17,18,18,19,19,20,20,21,21,22,22,23,23,24,24,25,25,26,26,27,27,28,28,29,29,30,30],"right_children":[2,4,6,8,10,12,14,16,18,20,22,24,26,28,30,32,34,36,38,40,42,44,46,48,50,52,54,56,58,60,62,-1,-1,-1,-1,-1,-1,-1,-1,-1,-1,-1,-1,-1,-1,-1,-1,-1,-1,-1,-1,-1,-1,-1,-1,-1,-1,-1,-1,-1,-1,-1,-1],"split_conditions":[6.8E1,6.6E1,1.1E1,2.21E2,2.33E2,7.6E1,2.02E2,3E0,3.7E1,3.8E1,2.63E2,2.83E2,3E1,2E2,6.29E2,1.3E1,7E0,6.4E1,4.96E2,2.4E1,7.3E1,4.5E1,3.26E2,2.7E1,5.77E2,1.47E2,4.03E2,3.2E1,4E0,3.5E1,7.07E2,5.580771E-2,1.8329384E-2,5.359997E-3,1.2929516E-2,8.152296E-3,2.117073E-2,1.551324E-2,-5.080105E-2,3.8919233E-2,5.5007627E-3,6.517471E-2,-6.5484545E-3,1.0542674E-1,3.581023E-2,1.33523615E-2,3.1838015E-2,-3.4697816E-2,1.4732502E-2,-1.5952062E-2,2.8763724E-2,7.617061E-3,7.9367585E-2,3.218335E-2,-2.1714112E-2,-1.4462384E-2,7.2689764E-3,-8.846463E-3,-3.751747E-2,1.5213658E-2,7.855351E-3,-2.7984488E-3,2.2913927E-2],"split_indices":[8,8,5,7,3,6,7,8,0,0,3,7,0,7,2,6,8,8,3,0,6,6,2,2,2,7,2,2,10,0,2,0,0,0,0,0,0,0,0,0,0,0,0,0,0,0,0,0,0,0,0,0,0,0,0,0,0,0,0,0,0,0,0],"split_type":[0,0,0,0,0,0,0,0,0,0,0,0,0,0,0,0,0,0,0,0,0,0,0,0,0,0,0,0,0,0,0,0,0,0,0,0,0,0,0,0,0,0,0,0,0,0,0,0,0,0,0,0,0,0,0,0,0,0,0,0,0,0,0],"sum_hessian":[2.6048082E4,1.7590627E4,8.457454E3,1.7044285E4,5.463418E2,1.2208623E3,7.236592E3,1.1441896E4,5.602389E3,2.5201016E2,2.9433163E2,1.1353304E3,8.5531784E1,4.2242256E3,3.0123665E3,5.284692E2,1.0913428E4,4.5678047E3,1.0345846E3,2.2265347E2,2.9356684E1,3.6378464E1,2.5795316E2,1.0570868E3,7.824369E1,4.215101E1,4.338077E1,4.161043E3,6.318256E1,2.5715522E3,4.4081424E2,2.1004385E1,5.0746478E2,7.0614874E2,1.0207278E4,4.4319663E3,1.358381E2,1.0253826E3,9.201991E0,4.859395E1,1.7405952E2,2.3767212E1,5.5894723E0,1.675946E1,1.9619003E1,1.1094396E2,1.470092E2,7.790193E0,1.0492966E3,6.189902E1,1.6344666E1,1.257097E1,2.958004E1,2.5669876E1,1.7710896E1,5.9886528E1,4.1011562E3,3.576974E1,2.741282E1,1.809051E3,7.625012E2,3.38363E2,1.0245123E2],"tree_param":{"num_deleted":"0","num_feature":"12","num_nodes":"63","size_leaf_vector":"1"}},{"base_weights":[1.09977454E-1,1.1148899E-1,5.9882708E-2,-3.0991884E-2,1.1206718E-1,2.0340072E-1,2.7268173E-2,-3.8858464E-1,4.937044E-2,1.1058299E-1,1.6386658E-1,3.1721202E-1,2.5045281E-2,-5.8711164E-2,6.765544E-2,-5.172217E-1,5.2074082E-2,-5.5600816E-1,1.06273204E-1,1.4172389E-1,1.0821108E-1,1.2737738E-1,3.7296024E-1,4.6456212E-1,1.4695068E-1,-1.3212022E-1,3.0616954E-1,-5.709156E-1,1.027238E-3,2.6207718E-1,1.4618092E-2,-1.9628514E-2,-7.159825E-2,-4.239901E-3,-6.6579744E-2,-1.1070667E-2,2.364278E-2,1.3833664E-2,6.015391E-2,-2.2923502E-3,1.0879971E-2,1.3941486E-2,-5.422632E-2,4.4348635E-2,4.8583713E-3,-8.971528E-3,5.670042E-2,2.953434E-3,7.1737945E-2,-3.615782E-2,2.0729693E-2,-1.0936407E-2,7.307644E-2,7.659288E-2,-7.060782E-2,-1.2899242E-2,1.3334776E-2,4.574283E-2,3.0355137E-3,2.2072433E-2,-2.0824315E-3],"categories":[],"categories_nodes":[],"categories_segments":[],"categories_sizes":[],"default_left":[0,0,0,0,0,0,0,0,0,0,0,0,0,0,0,0,0,0,0,0,0,0,0,0,0,0,0,0,0,0,0,0,0,0,0,0,0,0,0,0,0,0,0,0,0,0,0,0,0,0,0,0,0,0,0,0,0,0,0,0,0],"id":24,"left_children":[1,3,5,7,9,11,13,15,17,19,21,23,25,27,29,31,-1,33,35,37,39,41,43,45,47,49,51,53,55,57,59,-1,-1,-1,-1,-1,-1,-1,-1,-1,-1,-1,-1,-1,-1,-1,-1,-1,-1,-1,-1,-1,-1,-1,-1,-1,-1,-1,-1,-1,-1],"loss_changes":[1.984436E0,2.1061401E0,3.6096141E0,3.0061412E0,1.9362183E0,2.891955E0,2.1933036E0,2.513507E0,3.0131814E0,1.8102722E0,5.3391285E0,2.1175108E0,2.547212E0,6.1826634E0,4.424413E0,9.6362114E-1,0E0,3.9629626E-1,2.263626E0,2.6363068E0,1.7756348E0,4.9332705E0,2.3664045E0,2.676546E0,2.7840018E0,2.9635634E0,3.7226048E0,4.35421E0,3.1472695E0,4.149893E0,2.4770138E0,0E0,0E0,0E0,0E0,0E0,0E0,0E0,0E0,0E0,0E0,0E0,0E0,0E0,0E0,0E0,0E0,0E0,0E0,0E0,0E0,0E0,0E0,0E0,0E0,0E0,0E0,0E0,0E0,0E0,0E0],"parents":[2147483647,0,0,1,1,2,2,3,3,4,4,5,5,6,6,7,7,8,8,9,9,10,10,11,11,12,12,13,13,14,14,15,15,17,17,18,18,19,19,20,20,21,21,22,22,23,23,24,24,25,25,26,26,27,27,28,28,29,29,30,30],"right_children":[2,4,6,8,10,12,14,16,18,20,22,24,26,28,30,32,-1,34,36,38,40,42,44,46,48,50,52,54,56,58,60,-1,-1,-1,-1,-1,-1,-1,-1,-1,-1,-1,-1,-1,-1,-1,-1,-1,-1,-1,-1,-1,-1,-1,-1,-1,-1,-1,-1,-1,-1],"split_conditions":[9.8E1,6.1E1,1.08E2,1.12E2,7.9E1,2.17E2,9.9E1,7E1,7.7E1,7.1E1,4.25E2,6E1,7.7E1,1.7E1,2.4E1,4.5E1,5.2074082E-2,2E1,3.8E1,4.98E2,7.4E1,4.19E2,5E0,1.6E1,1E2,4.66E2,2.61E2,7.2E1,3.86E2,1.9E2,1.67E2,-1.9628514E-2,-7.159825E-2,-4.239901E-3,-6.6579744E-2,-1.1070667E-2,2.364278E-2,1.3833664E-2,6.015391E-2,-2.2923502E-3,1.0879971E-2,1.3941486E-2,-5.422632E-2,4.4348635E-2,4.8583713E-3,-8.971528E-3,5.670042E-2,2.953434E-3,7.1737945E-2,-3.615782E-2,2.0729693E-2,-1.0936407E-2,7.307644E-2,7.659288E-2,-7.060782E-2,-1.2899242E-2,1.3334776E-2,4.574283E-2,3.0355137E-3,2.2072433E-2,-2.0824315E-3],"split_indices":[8,7,3,3,6,7,8,6,2,2,3,3,3,6,6,3,0,6,8,3,2,3,10,3,3,2,7,7,2,7,3,0,0,0,0,0,0,0,0,0,0,0,0,0,0,0,0,0,0,0,0,0,0,0,0,0,0,0,0,0,0],"split_type":[0,0,0,0,0,0,0,0,0,0,0,0,0,0,0,0,0,0,0,0,0,0,0,0,0,0,0,0,0,0,0,0,0,0,0,0,0,0,0,0,0,0,0,0,0,0,0,0,0,0,0,0,0,0,0,0,0,0,0,0,0],"sum_hessian":[2.6294254E4,2.552291E4,7.713427E2,1.0294119E2,2.5419969E4,1.418602E2,6.294825E2,1.8185362E1,8.475584E1,2.4714957E4,7.050123E2,8.612438E1,5.5735813E1,2.0104007E2,4.284424E2,1.6309372E1,1.8759905E0,6.5285473E0,7.822729E1,1.7450784E3,2.2969879E4,6.0163025E2,1.0338207E2,4.524192E1,4.088246E1,3.608958E1,1.9646235E1,2.010452E1,1.8093555E2,9.0982346E1,3.3746008E2,6.997743E0,9.311628E0,1.3938959E0,5.1346517E0,2.9386562E1,4.8840725E1,1.7336085E3,1.1469804E1,1.0247619E2,2.2867402E4,5.917842E2,9.846124E0,8.461733E1,1.876474E1,7.076694E0,3.8165226E1,3.4775993E1,6.1064706E0,2.1493753E1,1.4595826E1,1.0304282E1,9.341952E0,1.4175291E0,1.868699E1,9.127391E1,8.966164E1,4.8836853E1,4.2145493E1,4.874842E1,2.8871164E2],"tree_param":{"num_deleted":"0","num_feature":"12","num_nodes":"61","size_leaf_vector":"1"}},{"base_weights":[-2.6208952E-1,-2.6442298E-1,-2.2230282E-1,-2.463095E-1,-2.6948825E-1,-2.7404398E-1,-1.833601E-1,-2.6287675E-1,-2.0462368E-1,-2.682381E-1,-3.627856E-1,-1.8532203E-1,-3.1895217E-1,6.884213E-1,-1.8845999E-1,-3.381023E-1,-2.50841E-1,-1.8561514E-1,-3.1743324E-1,-2.8509519E-1,-2.6245463E-1,4.5856032E-1,-3.7427917E-1,-2.7420327E-1,-2.729312E-2,-1.5750146E-1,-3.4579238E-1,-3.651562E-2,1.22271E-1,-3.505032E-1,-1.6741526E-1,-2.8328208E-2,-4.143502E-2,-2.4207778E-2,-3.175771E-2,-3.7053496E-2,-1.7855136E-2,-3.2931603E-3,-3.6400046E-2,-2.8687714E-2,1.4629121E-2,-2.0076629E-2,-2.646987E-2,1.1103237E-2,5.9271164E-2,-2.7713984E-2,-4.79655E-2,-4.2233437E-2,-2.0272221E-2,1.1738631E-2,-3.7123352E-2,5.3191572E-2,-1.9807247E-2,-2.4812846E-2,-3.7918266E-2,5.6257036E-2,-3.7206937E-2,2.171274E-2,-1.80308E-2],"categories":[],"categories_nodes":[],"categories_segments":[],"categories_sizes":[],"default_left":[0,0,0,0,0,0,0,0,0,0,0,0,0,0,0,0,0,0,0,0,0,0,0,0,0,0,0,0,0,0,0,0,0,0,0,0,0,0,0,0,0,0,0,0,0,0,0,0,0,0,0,0,0,0,0,0,0,0,0],"id":25,"left_children":[1,3,5,7,9,11,13,15,17,19,21,23,25,27,29,31,33,35,37,39,41,43,45,47,49,51,53,-1,-1,55,57,-1,-1,-1,-1,-1,-1,-1,-1,-1,-1,-1,-1,-1,-1,-1,-1,-1,-1,-1,-1,-1,-1,-1,-1,-1,-1,-1,-1],"loss_changes":[1.9046631E0,1.7662354E0,2.3232956E0,2.968567E0,1.7219238E0,1.9483604E0,3.1313782E0,2.7474213E0,2.619667E0,1.4260254E0,2.0917645E0,2.404305E0,1.3891182E0,2.7777693E0,2.2329178E0,1.6740837E0,1.5024872E0,